128 50
mammal.n.01 0.0805087017863221 0.04944768707287848 -0.059446846075918755 -0.022625616219434336 -0.029408902128558775 0.02696272162090308 -0.09845149340169337 0.016954436274047125 0.11600595684900039 -0.09685987320095504 0.059462707298733576 -0.04669562101135788 -0.013536587422563348 0.006025383390782937 0.018695822764247493 -0.08216276873837486 -0.009506487258969904 0.0144924848746505 0.05706272366041379 0.029472661174100842 0.019745206400001512 0.007768523795995728 -0.0196974705963324 -0.0005332587263326677 0.002179787425828525 -0.029334511017904328 -0.027986640153585908 0.018611062695207008 -0.02653075354616271 -0.04117895688186243 -0.06701614907987938 0.08789685811899678 -0.11338722601090837 0.08780912850485166 0.02378210749433817 0.11429561306932373 -0.042219766015714734 0.018561077731936326 0.04683046669635044 -0.07042030737331732 -0.007942208709628688 -0.03427981173395126 -0.08223105357981256 -0.015432901021535227 0.097133702285589 -0.10187844055118492 -0.11299600341478659 -0.15852061192825376 -0.0027557790945162116 0.08834502994333458
placental.n.01 -0.020378224341888074 0.06389640023475054 -0.037692364812329036 0.005554601468978883 0.07200323950389373 0.03450381684530082 0.10245288428419652 0.04082100811091406 -0.09020420402779769 0.006807146832007711 0.004778562688720644 0.017182014747637055 0.02502210873545238 -0.05745277435707862 0.0717908041795054 0.03870321368580965 -0.027791457692221414 0.041940823267147424 -0.02728434642240138 -0.05562069961170521 -0.06065532249162624 0.0518494279639487 0.09529439006129382 0.165940318120143 -0.0034021275911633037 0.10627657934601276 0.03180697139527698 0.03976098779535665 0.13336735303040229 0.0752329190661823 0.03621974781098514 -0.04269318694927581 0.005833964148748805 -0.14590652447157093 0.0034538291341819453 0.02639910852547417 0.0889944139200097 0.03928138087517826 -0.032724446660429785 0.07579747456358232 -0.020705372571657714 0.01059857178387484 0.03580668126001651 0.013945635490743277 0.0075377347752327 -0.08147164813117543 0.08967587965705409 0.05066428855953616 -0.04897437991622703 0.01130358923978778
canine.n.02 -0.047919345588479545 0.1136658274788181 -0.03776919825062384 0.027339988010320282 0.0017618185870923511 -0.029215213467265726 0.056003213342012644 0.016894937218732215 -0.04477934676594417 0.04532937860953084 -0.012555172988119983 0.03133627562062589 0.015137293638335653 0.006004762723709167 0.07946584801057496 0.026970436765845283 -0.09337878267099911 0.04327098068373979 0.06798778401140378 -0.040872416694039446 0.007399833509650739 -0.06882437041343764 -0.03075580401058609 0.14585746386529988 0.03555817123551549 0.07965705644573386 0.050777660372504245 -0.04389403389054672 0.06341796531023855 0.05934568849800848 0.10742019031958994 -0.02693149684470228 -0.003359927049695871 -0.12138034365281206 0.05848132330891335 0.02498367436404376 0.08319378503638453 -0.051446586196898014 -0.025023214678011038 0.07597340551283156 0.02460427502434786 0.022166672564918923 0.06192043188168938 0.005595014482947664 -0.014549603015143714 0.03695058589421586 0.029699585940249098 0.239910415834604 -0.014842975511046895 -0.06604899827303268
kangaroo.n.01 0.12379175159229176 0.08150627384383262 0.025236853036552848 -0.05514126112417501 -0.12204407567742939 0.1836213030368168 -0.08213231239666234 0.07908242916438216 0.061770008486829495 -0.0565643035897104 0.12491470428325607 -0.05838770345162212 0.055584102016047784 0.10147017731044915 -0.07847729693166407 -0.2071783905014683 -0.005441110403528548 0.03605496085016801 0.18598450448675935 0.20426581872254004 0.06620065117574685 0.04912569588858119 0.10886157327020857 0.05372724241830125 -0.08265203213187686 0.016410733023772384 -0.16803308379817433 0.0004946368042233418 -0.0864397095470982 -0.13181621627032775 -0.031831745833835065 0.14889670073894243 -0.19746146119673288 0.06045986652268151 -0.10554785763683441 0.1533556158336519 0.020748328766202407 0.05435709700463919 0.19810599692281408 0.053356086871195266 0.02347037667375941 -0.07499937509719536 -0.08659728412476264 -0.06695528666372805 0.12203790643016263 -0.06963642186122397 -0.22288264956174647 -0.20823154496228427 0.003858552184411136 0.08400737656725231
metatherian.n.01 0.06829764942170441 0.04403524120032156 0.03254256880903117 -0.033227022255000654 -0.08317681281298257 0.1263100958082805 -0.039759568709646635 0.052642884534089385 0.017812463187080636 -0.017466538315812078 0.07572791982131004 -0.029114371173203955 0.045366866183573856 0.07257055738732324 -0.06394611311073684 -0.13349244706054034 0.002178995652486591 0.02245565777065344 0.12339157121085745 0.14073290784936643 0.04269371007894616 0.031407856002345934 0.08473799755448969 0.03762832275480083 -0.057315066604484946 0.015428853590361063 -0.11555596259572284 -0.0019581425221865028 -0.05837105220083097 -0.08849873009784648 -0.005970780222540252 0.08847677594363935 -0.1195307758210088 0.02329582294936809 -0.07999523869604364 0.08532570794996085 0.021656442901792042 0.03165327690626789 0.1312494054444777 0.05516610003058408 0.02147424626887151 -0.045564225722675995 -0.041844773458620345 -0.04605557960587915 0.061206182457237565 -0.023069359803571884 -0.13504677519267713 -0.11000586568194538 0.005032727807333635 0.037263373250895286
horse.n.01 -0.10528730994784662 -0.08999306464628866 0.044965329440668854 -0.04427292653428068 -0.008894502951787649 -0.004997200633794071 -0.011372858485580761 -0.08609536858790999 -0.027614887894510314 0.055964041932054204 -0.03865704345492151 -0.037818930919095654 -0.0026636909857793273 0.04555558345234081 -0.025922550763291738 -0.010844142862565553 0.07149077620400013 -0.020440212596927524 -0.09930974646345575 0.05353262483039978 0.04024018489820844 0.08811003970313475 -0.21732227995241557 0.01592817171348972 0.02822599101897917 -0.04052775883126723 0.0640769913132497 0.12133484980266673 0.016757279121772887 -0.007049313139636118 -0.010443487807819505 -0.017021756583059117 0.09204437654909813 0.059020025548529385 -0.0741103576709041 -0.06328322783022085 -0.10258208195783523 -0.042684124858307394 -0.1108220343403711 -0.16985519640109098 -0.02193942891443195 -0.02192369804464251 -0.1128301648531655 -0.12897069871834935 -0.06222318459533168 0.024897392672488115 -0.009528281414231668 0.013941874327382907 0.046463444200006705 0.054431203361095686
even-toed_ungulate.n.01 0.00910830009221952 -0.09305351045719158 -0.054055682107556166 0.047690695133462094 0.09977639074306051 -0.080796926504856 -0.13833538934185113 -0.13420449794162248 -0.011975268878882889 0.04067753743580069 -0.12929106664340995 0.08767068270155877 0.004900097894689747 0.002055497345743159 -0.03461109514194532 0.042609085996780635 0.046891897605672465 -0.11182102166499794 -0.003758353212075734 -0.043065465859561565 0.1187723935967966 0.00971416192242218 0.05301013863725018 -0.11440170895525853 0.00022629218704274057 -0.002494868539132158 0.12025586892069083 0.004632844591236596 -0.05411149214404098 -0.06320837744508478 0.0059258937955089476 0.10247674995625078 0.08862876614143594 0.11723638478493095 0.010735836438285804 0.034614352227265305 0.07532143551865589 -0.03634376393716821 0.12133539643112841 -0.030929600355616874 -0.010983041780619304 0.05909503585975079 -0.049855361392952505 -0.05477659965892662 -0.07026930230924802 0.03193719513470944 0.08372144940702517 0.0372127578658436 -0.08101399202986193 -0.03846075491455315
broodmare.n.01 -0.1309553454835293 -0.11061715869015361 0.05650370425522135 -0.055436452193953226 -0.011274028093163668 -0.00745155285712859 -0.011083226018632271 -0.10609340311621009 -0.03522287627327245 0.06979492633488088 -0.04490113401800539 -0.04727426587397785 -0.0041894669152499125 0.05765909758034601 -0.03177129058294851 -0.013413260310271648 0.08935113550595782 -0.024105654289864865 -0.12281912735981297 0.06629197172719205 0.05052348843775944 0.11090748835145046 -0.26872110444695674 0.02061242515679282 0.034506219214393334 -0.048697904901991156 0.08127173318418517 0.1506596253624596 0.01861907499867569 -0.008931211139091259 -0.014051642558735315 -0.02106333246650084 0.11558250037813628 0.0711497285375462 -0.09074658394284893 -0.07845983432746266 -0.12698659955891267 -0.05217422733416222 -0.13888753519503536 -0.21115767818963735 -0.02696147338828929 -0.02744778758666664 -0.1383312041969983 -0.15864013553809436 -0.0770269757145878 0.029838902330216653 -0.014639404834895337 0.01768468751906788 0.058151837038737574 0.06733771233634638
spotted_skunk.n.01 -0.16533293098345464 0.03015453328563932 0.008540751127498724 -0.020841404567723675 0.099405299699692 0.023706580545789994 0.14235217469578823 -0.03770425394951277 0.04250848974811221 0.17620723452101758 -0.03043624125775185 0.0542527920314967 -0.06744594224399504 0.15223575325245703 -0.12406454697818846 -0.03665952349711279 -0.08403933449680967 -0.04015660675140074 0.02741126862397581 -0.022293853213793128 -0.0335137919337998 -0.09269455205782154 -0.034751320496057045 -0.14355463820972184 -0.059868403027134774 0.0941359605657665 -0.029236720560167805 0.044448650979576815 0.06309486301762396 -0.06656030317195882 0.03567542369456634 -0.08209173048447072 0.15499254586178635 -0.018830757256086926 0.09154607627887884 -0.05291974844736099 0.12866196590776668 -0.12755238663851784 -0.029567019882238726 0.07026434557503744 0.004441383135581945 -0.1092293702530075 -0.0927454433463901 0.15625235594888698 -0.09094835795574968 0.12456400855466296 0.12162620135299589 0.01802840034944717 -0.018356625719773326 -0.020307722959501093
hispid_pocket_mouse.n.01 0.07090510471813677 0.0401656482316794 -0.10062767954405928 -0.01075458326390371 0.15155484665657365 0.06437954210671552 -0.12240112529368746 -0.023510473765228378 -0.14843336926089234 -0.13993533890981466 0.15903432957735283 0.10310993972696371 -0.033193867165549874 0.0029942673562279305 0.009773855920028664 0.1274598112756445 -0.12946913649764416 -0.05430611191381788 -0.009924946473957308 -0.01752097440196488 0.1384841171753979 -0.035255804984007114 -0.019122310691273115 -0.05180648811301919 -0.08413380418372753 -0.02855890184875386 -0.1296851521385754 0.008717007058892001 0.16870878508185708 0.03787267862888013 0.09858027334709878 -0.03402713540562438 0.0007712656188843563 0.11360391463067251 0.05160900027300685 -0.09414713046514551 0.02904880994611057 0.07840195947975284 -0.09995283359607772 0.14347801894328957 0.045320906051473056 -0.0020873089423904044 0.004036745957271713 -0.018742400324900366 0.08993623324847118 -0.058724698725394084 0.19787844835828072 0.01882587487208231 -0.07513083669224752 0.042057673535422176
bronco.n.01 -0.024338548666266648 0.1770361704067205 0.11559501650753323 0.10717881285212288 -0.040629464530922345 -0.05322972797811009 -4.9620113421787956e-05 0.07905128168375879 -0.10245977794768743 0.06542113723018818 -0.10653237223410564 0.03757035677514796 0.033224632402854275 -0.08836937476551601 0.04724675623374251 0.021186972881946868 -0.08205131539749841 -0.05713041476345943 0.042174892094644395 0.008189831933859451 0.09611646578716958 0.12271561324784111 0.12237982638320496 -0.12291630890966815 0.10539801982449484 -0.08765307735653047 -0.02580753167735254 0.05195401948667821 -0.06894751598123634 0.0012513282644210477 -0.09129661495389095 -0.050798635668312817 -0.08247771923411443 0.0511532824972776 -0.17161286041627424 0.002156615582678432 0.01319120968887951 -0.013976558386854467 -0.13652636508674357 -0.09319329293188432 -0.07051585719722028 -0.02685716559975524 0.13704038828041953 -0.1210594458797985 0.1096586075120268 -0.016359971337391567 -0.04769612945664785 -0.03231971705122946 0.1366131150019189 -0.023696475545848195
pekinese.n.01 0.09641988423562338 -0.03981048795728042 0.01929394503975273 0.10991309989641128 -0.037042830646410646 -0.10936203910828438 -0.052001430322936686 0.14046427581262583 0.05675796208506874 0.08975850144080662 -0.08477874054375964 0.02566890981691425 -0.03985856687544706 -0.014112967296553678 0.04878332654159907 0.12048624083448006 0.13924194412001004 -0.06974648069749982 0.11578740117986219 -0.040760588392679716 -0.02824922484920714 -0.10345193903075575 0.11756693721067357 -0.01835812990668346 0.0759374308706581 -0.019800532719241332 0.08983871322419769 -0.013744467458667798 0.07216784901872736 -0.029618721059876313 -0.04278535766133667 0.10412063715030574 -0.1581442405986297 -0.06261453552090866 -0.004944099985142047 0.1771897697971529 -0.04823368170885748 -0.03601916778342504 -0.1539533445098018 -0.014919201754624575 -0.08303580346579917 0.09946855943787963 0.04312977672806092 -0.02987227939863688 -0.08987831619414179 0.07760343033964699 0.013525333370727265 -0.2025277848544159 0.07717636634641194 -0.02996058487156026
kinkajou.n.01 -0.053344399268814006 0.011892783456738035 -0.12758630241713612 -0.0685292853714676 0.1325214953697309 0.048340909927497004 -0.14005249794641525 -0.14671205715224386 0.0785599321389675 0.022609282889840362 -0.09398731665178067 0.02725477939990716 0.0259375123710068 -0.10932719819082172 -0.14636762677931725 -0.09979988706921088 -0.039551765572687206 -0.11159557334355108 -0.08340796271756323 0.02418210762324221 -0.0652556615809013 -0.0971291275715956 -0.11799934770745403 -0.09981385631661671 -0.026444435183899034 -0.06554328792491745 0.0797243334281913 0.12501967158701346 -0.051769140697983274 0.0550281060995116 -0.025388897792763952 -0.013820841043870168 -0.0045553704741999775 -0.02299960021610556 -0.00618137906620463 0.0014501326678491638 -0.006596106691084974 0.1219100504168211 0.11624159026537059 0.07000600179104373 0.03536996759730259 -0.10235400317057347 -0.0027634525652956714 0.05141606411518592 -0.09399417707806383 -0.0626986288219378 0.10319931768379914 0.03954298800098505 0.05073369722391336 0.0824642341199419
woolly_monkey.n.01 0.09331790990213905 -0.049160829459039844 0.044829627193504584 -0.07386231510640501 -0.09007182863479286 -0.010836797439753677 0.03760776568849492 0.01835923509977013 -0.11637308399584857 0.14353077737666817 -0.022193564754210235 0.12211563799529182 -0.01648607619026841 0.09761075031894254 -0.046024208412998646 0.15629571314939625 0.08440833573239605 -0.037601536453856645 0.07052681796115245 0.08887322739936145 0.07974287942930039 0.02384358270527208 -0.09403341040384622 0.03012203969279789 -0.08988479798545672 0.018835891402384355 0.048681142969431095 -0.09109074825314538 -0.1889011341742967 0.08269091823336974 0.022968471960019204 0.054881367474213585 0.0806620032547189 -0.10152476424947378 0.08680779092827859 -0.09841402841530875 -0.021286611784676293 -0.033635991768344684 0.2461490640315146 -0.05196261389396341 0.10850964670697849 0.05944345011872638 -0.015444955453915714 0.12270393880099059 0.04814328656530893 0.13527852530249004 0.00999280741945624 -0.0033844232837020433 0.033619160294805224 -0.0626619126864889
jungle_cat.n.01 -0.13435638890466745 -0.08850564586510395 -0.06939878314114 -0.005987086282155011 0.12413725318538718 -0.09774455148719716 -0.027260638891153374 -0.061579087627054524 0.10255921536781458 -0.10660328995008107 0.07126340845103514 -0.11587990668041336 -0.050701569460095484 -0.05887376529222679 -0.056820769772167136 0.021324670153525457 -0.009816133356663795 0.07878740453365078 0.02431339060854309 -0.01991845987068503 0.11353659438702886 0.02380968766446015 -0.04539203238823223 -0.07504342073000558 -0.0057146622553193565 0.0010594834276392618 -0.04554990312330055 -0.12722022754414478 -0.0367742533992205 -0.07179181600453075 0.11022689457663881 -0.039208644750640925 -0.06639708921809695 -0.11820710821508727 0.1943516200912591 -0.1721648320622605 -0.11314712519496549 0.09060885652361748 -0.1452580345775421 0.06186698473072163 0.05989238064423729 0.028375552501287257 0.12526731406372768 0.03814303624849818 -0.1589348354801831 0.04376550698888158 0.10092723543540397 0.15529137162728687 -0.08704930258022643 0.07158718541678388
leopard.n.02 0.17117173273782216 -0.11242465684842477 0.10813088939568406 -0.05604512752329248 -0.04692409420527527 -0.15870399815066205 -0.054340107244066294 0.06629799105092042 -0.03970234850664778 -0.06578064520288035 -0.0050799592599860485 -0.0018451705018497464 0.03704237394611076 0.05133833902215447 0.045138077025139355 0.027123466262513406 -0.02260717706554507 -0.081430321044287 0.055275492280860455 -0.010415905369480507 -0.03671922188370954 0.007290526963774037 0.08380785346170383 -0.1243297025690316 -0.15916423573838231 -0.09934315042151243 0.07028587215606126 -0.017830589585646 0.03876946143889703 0.06926160356564903 0.04340247683070789 -0.14352379032458348 0.11446687839265253 0.07220110045995269 0.02876408238422691 0.035444805146402185 0.08474447348034897 -0.1775874456372946 0.011329508173822571 -0.04346388372628339 -0.04828114784138628 -0.0924654034060055 -0.006515679939944327 0.14925774058884023 -0.01881678614800262 -0.0426041769348808 -0.032457673015919265 -0.09058599779213825 0.021298682355995514 -0.026753751620346475
hackney.n.02 -0.12588953365028185 0.028335087817718596 -0.02905543161991782 0.02303670464669096 0.17369699229003832 -0.009061754337657447 0.06513337774696147 0.10545262690478696 -0.06757699312565317 -0.03932214047254835 -0.12317788408295949 -0.061066801553104906 -0.11972597994455877 -0.11555583720942353 0.07320421588583602 0.025045813949841903 0.039995987467375455 0.06750529808597865 -0.1250636620087845 -0.16094020469260562 0.028432098575644018 -0.024807278801173293 -0.15111938733096075 -0.05230800197138008 0.16551494231779473 -0.0574049745051016 0.012587893411274115 0.10500472347088978 0.0637630132253897 -0.00818297847247861 -0.046854296943548625 0.0599112918792542 0.09988105450753607 0.13461109347257028 0.009483208727177247 -0.1045735878663973 0.04622331236568347 -0.058494771158709345 -0.09480174339724359 -0.04282560067973337 0.03148763138565342 0.0571266009573768 -0.054403729260132414 0.021769585634388345 0.030373725528524093 0.022648194957655576 0.08963361145442114 -0.05426922283963667 0.09927405649907099 0.04374044617889249
shetland_sheepdog.n.01 -0.07621981011556093 0.17683179332699384 -0.06646743864961613 0.037676025681568255 0.04591329151733106 -0.013327642395944826 0.1342889266318881 0.043970587113602196 -0.10579102227997406 0.060626325413890736 -0.0145923164943826 0.04154125024616841 0.031078767363659724 -0.02685000822193558 0.14309292512822766 0.056119890017525965 -0.13407806110457232 0.07889793823462794 0.06257792015121379 -0.08439639122254922 -0.027993092810686192 -0.05438533896081399 0.019740528503215872 0.2809220873598331 0.0442448000007183 0.15773682103431402 0.07796570579625464 -0.03181682053492239 0.16227338888603574 0.11613948898786065 0.15486534153181497 -0.061851197295889115 0.0002936284688811974 -0.23587122700932944 0.07194480270374712 0.042151017825194724 0.1552883150385115 -0.03642255296593409 -0.0556122435052053 0.13860627940565845 0.014792559701956238 0.02986645261986397 0.09870751326236282 0.011401857215029097 -0.01479988157148661 -0.0020247943355801586 0.08911572074824117 0.3243094035973662 -0.05012114950284474 -0.0710185721847995
carnivore.n.01 -0.059598316241862626 0.013154946789328702 -0.025396802816855277 0.008422933949467604 -0.06602094563463996 0.0708076372640618 -0.01332085868586439 0.02043942927130123 0.09212962688277042 -0.06272916135422685 -0.054915563475763075 -0.013449834225162055 0.06560947505300085 0.013359125209893156 -0.07232732283889033 -0.05248795073635818 -0.10244284660591729 -0.05123482822868128 -0.07891878144755424 0.03150832827940395 -0.028783506951606256 0.046163131794966006 -0.026960474235275176 0.015686135641021087 0.07569907665178569 -0.1203059094858785 -0.13429050420094385 -0.07080422535674696 0.0699823402082043 0.025554178195381045 0.041285606368820824 0.047417039043644534 -0.023750707476400772 0.09115279310589985 0.022156460586353847 -0.1045798799135238 -0.01850181191540775 -0.06718139391074093 -0.02071724755297037 0.04044550269599789 0.11443027836284282 -0.09608978228836304 0.050531219620274424 -0.11917574757083908 -0.1173922197427443 0.13088304980568333 0.11018025445971429 0.020898989625359743 0.030452123345622792 -0.045174545803891436
porker.n.01 0.0617868400411219 0.07392292555824326 -0.09394472498543464 -0.028416540109167342 -0.03385225747963863 0.10969467425972103 -0.12127290639445427 0.02439507298019882 -0.023352593375703074 -0.18433226759377755 0.0461589665427629 0.047365490152447814 0.09377296602078218 -0.09505910175968789 -0.07530667270417886 -0.12145039620623599 -0.046929766769144794 -0.0803416118649032 -0.1103746562925256 -0.013523744353582334 -0.03815988902920508 0.1107282320232529 -0.09456509778951805 0.015522739159762338 -0.09279112527341186 0.02406417750488459 -0.15071700255588646 0.039445527107494674 -0.10001727017645147 0.09277083903566917 0.1010195629283756 -0.07799406166753686 0.08938449778419762 0.1336780446056604 -0.04196373296346315 0.0665146027016828 -0.07243350337828618 -0.025754895816652072 -0.10782261527262228 0.04673359701887529 -0.08429764250540812 -0.0496838331712328 0.027123700900955533 0.062129717013629064 -0.07138217597257014 0.06938275659243333 0.019094275138872747 0.009829813773756265 0.04090382674209624 -0.0821926486295034
mouflon.n.01 -0.054843459741261716 0.01093466541767704 0.10978629622591905 -0.013336949369885265 0.11449229860029142 0.04676648790702657 0.13693446892938302 -0.042624135129707086 -0.19139643708109957 0.11715988811273184 0.01656742653170972 0.04316151733701205 -0.15790667446664908 0.07694323441119162 0.12111257394585961 0.061572603445772575 -0.13295504166926397 -0.01632770265612658 0.12766926808954077 -0.00520296850942298 -0.12901413968422656 0.030688190925455636 0.10787354611529786 0.08361800777384157 -0.1073984821427401 0.026396060281211255 -0.05065796225319952 -0.0637298463354739 -0.03452095943273553 -0.015618958512138003 -0.06987990383812713 0.04185190000324424 0.07087714061353419 0.046212135515991674 -0.005507260296256909 0.01629671913819442 0.10691197318993383 0.10410568951515148 -0.009724566663187606 0.05336498488336135 0.05553920013597305 -0.09425396847952983 0.0873111437793089 -0.08007654768300768 0.04390651517107301 -0.033244672230775596 0.0687088550471727 0.051159958285884384 -0.03978128974631649 0.071461254428329
rodent.n.01 -0.05320876847027129 -0.08282296620611865 0.06796826722011542 0.08612642319002067 -0.03594048195201685 -0.09503106526671716 -0.04057777698707624 -0.10870340879797864 0.010701513928469127 0.044868419248885294 -0.06802916560175216 0.03748973763830513 -0.04729176078330025 0.016040631925412583 -0.06318333048856577 0.03477532769820136 0.04542228368260409 -0.007687910003843516 -0.09777764521102972 -0.09494261016461063 0.05186596698162429 -0.12513821897860958 -0.010975757413907552 -0.04008164814151064 0.029397611296700495 -0.08637891789642342 0.08660318500303023 -0.05221487188935494 -0.14145949371836644 -0.06652461404823325 0.029986741351466964 -0.03708602851237796 0.10446936230399427 -0.009658916644522546 0.07465318049659346 -0.02415321163830173 -0.08627870986673519 -0.09697763805953767 -0.06961740216083814 -0.048520559914756164 -0.020815093011537698 0.04003604101736067 0.09731389550779984 0.00517981712765878 -0.08912317642013075 0.08738267381702934 -0.042244183354043285 0.1071250009373922 -0.01178568051426739 -0.0512503825717741
odd-toed_ungulate.n.01 -0.1071686352213409 0.08282311333819453 0.045785813564093884 -0.02616492311464751 0.02153178695428297 -0.016792380333679614 0.08101335727229393 0.13533494189136228 0.025010842604232524 0.018515797598168387 -0.02314012935520611 0.0236097000158763 -0.03569816176123065 -0.12171689639084723 -0.1142858922479965 -0.004468153326664217 0.06325257991577 0.06794993235106908 0.03504410323082372 -0.056581303060794313 -0.06153062559067913 0.03421049492315356 0.001699450954763634 -0.17375339924155733 0.04070577216442704 0.012548927350093704 -0.06238369414524277 -0.04683003330754537 -0.0608270454107963 -0.023377811452805125 -0.020007795711039535 -0.022448119977094828 0.0014522907705706032 0.046928901439671086 -0.09836140891676465 0.03383511125782815 0.10915028638210886 0.07359241867046698 0.08117998855766526 -0.02396486925115061 -0.05017256886272648 -0.017252726323503 0.13336354258153474 -0.0127061639244172 0.0720015886594847 0.11460548158560052 -0.0627417652939051 0.009659602132788454 0.10522294196697882 -0.025131310803865204
harrier.n.02 -0.06009858588474696 -0.06611469233499734 0.09416587632023597 0.14609726987276553 0.09566184213558804 0.019534964815303906 0.036502395024984174 0.14595225901878575 -0.049967402560267146 -0.0161032442062111 -0.09968432720555587 0.04477301351322561 0.08806603793941169 -0.08927068600956727 0.14305347984490918 -0.007921539655543304 0.12581351144308223 0.005963959753009774 0.10840646149074742 -0.038860260168008656 -0.15498034838373864 -0.043574496187233254 -0.012452720655058836 -0.11790834423008739 0.12417430266471748 -0.04491722358001754 -0.16038311622443946 -0.049147556917010664 -0.0005833012753983941 0.11721133543052495 0.07018475350717833 -0.07733874151167813 0.10149746551213902 -0.007905718072724876 -0.0566600567498383 -0.11846824295423734 -0.12176940699767869 0.05789610470468209 0.09334922995807875 0.0018466507353132686 0.11268234695172039 0.13414377500558625 0.05938069280894763 0.16602414463901227 0.12326462873856643 -0.08150245479438793 0.0984589350637186 0.020799093167593576 -0.012890143347693811 -0.11351659630852279
ruminant.n.01 -0.008588504816641186 -0.02848024964127049 0.006122497552946003 0.016009380218390875 -0.14170586111366312 -0.1247426896082297 -0.04852812012978736 0.05276892146419611 0.13435110178895301 -0.023873458653466607 -0.029645434748205614 -0.004290434088308627 -0.03607584374387376 -0.008633857989252208 -0.10310531735224229 -0.02890972717764331 0.09694563954503967 0.009288040692965722 -0.02890979777792975 -0.00381510343649034 0.024524767158507904 -0.06513229287184469 0.029324369885472473 -0.14497023299081005 -0.07470249589470851 -0.005934976506525677 -0.05236461914374818 0.015557569038556469 0.04876981566859167 0.026863290235830582 -0.04384760116370877 -0.01601815812468046 -0.049685892492871 0.08037239952162051 -0.06043756320802484 -0.0029533111561429294 -0.08561223121533983 0.025710630688391245 -0.13596592606192345 -0.10304611341645727 -0.008643128306720909 -0.06585295136806842 0.07489350688355699 0.03442150608499261 0.02057891150058634 -0.06351643121881281 0.0354377428481221 0.1307582010810459 -0.026428009115894224 -0.11487845372214688
monkey.n.01 0.054406395531609114 0.02226381039082453 0.04963308574222336 -0.09049544885131015 0.15873883429200455 -0.015573776026270957 -0.09774442364117393 -0.09118315745175004 0.10506091263821475 -0.012585952367887255 0.020109031078846974 0.05769121329225396 -0.02919071136523476 -0.03474243091417865 0.02680604182086669 -0.00909772535524906 -0.056789800462028854 0.050704502436635934 -0.012175628063126775 0.02381034607499416 -0.07312448566416359 -0.12589000058774846 0.014482633826018719 0.02153348971146847 -0.14016392904157401 -0.017966649441916074 0.03437857356954418 0.00530471398837092 -0.06566496113991938 -0.0877092755936831 0.012709845186921353 -0.18325899740749949 -0.016127297839885594 -0.007606871374461405 0.10403349690223682 0.05679568324694314 -0.024777565416438177 -0.06401318526441598 -0.05804326742356433 0.006531456414732279 -0.015802571147387725 0.15301197114437085 -0.023227220471495662 0.06336048801620768 -0.11452829098277732 -0.05165673516974757 0.015070672266923286 -0.062361851125078194 0.039959018668090984 0.05516525325152693
black-and-tan_coonhound.n.01 -0.11103049300214642 0.07149556532356624 0.12996340018897715 0.07602459337529381 -0.04596734160934573 -0.006135572820120146 0.13478775143862787 0.019721146457461692 0.016748362695171777 0.03008315419775956 0.07268244727511337 -0.1001641432187166 -0.058421398016922116 -0.07517455118778184 -0.07699183361254881 -0.05173161105432666 0.022849733540765776 -0.09200383693561753 0.06570149603697933 -0.04101155934211795 -0.14907227612191395 0.019242536157488575 -0.0946559395114575 -0.10627513593824198 0.0942695821019828 -0.1539164095657328 -0.08484093328526068 -0.1069797070723868 0.08268948439415993 0.07461201765583164 -0.09180723418551477 -0.09052370214096096 0.06268779998633452 -0.023897791795133697 -0.026738013565376372 -0.15141934891773634 -0.03025472530549531 0.12093833163309033 -0.07632388634376738 0.07520256737633747 -0.01282527918655943 -0.0876075727795207 -0.01835894822847341 0.06600668185619618 0.08088137929540225 0.12469158557578909 -0.06942976735656749 0.009603557989649942 0.09040117009582813 -0.05013852419228079
english_foxhound.n.01 -0.0342991482934132 -0.07677013478501689 0.10067623092370852 -0.07153472527926213 -0.09461375675714105 -0.20995647663091727 -0.16669161572982552 0.1403170949300412 -0.07851747949411916 0.1587262165134934 -0.08716024344506045 -0.07093611401223801 -0.0738951565398219 -0.03015959165095059 -0.10234279882393642 0.052396940911760316 0.060304507765169026 -0.040994946886711306 0.11712398570921413 -0.11354108021618269 0.010860313640809726 0.10645080963018895 -0.09370447669577249 -0.07137687903898124 0.05799646367934907 0.02529886163363088 -0.008171752349926894 -0.11211295500906664 -0.04592123287519283 -0.1306587241518542 0.01297757089972078 0.037421518333876816 0.05065677041004983 0.05450696379706764 0.1950186072946194 0.01933596178063857 0.003903543658481592 -0.03311416445810212 -0.07468927462001225 0.034722954438857825 -0.06438108139515836 0.028235727059205372 0.0512309856735847 0.013245905861531694 -0.017675036708371995 -0.0908598676607081 -0.07015551329434823 -0.13100865656248714 0.06744440402886602 -0.061939144737553
beagle.n.01 0.10870625098424781 -0.05333350727362762 -0.06650808964582854 0.047670604460727684 -0.10347555410046474 0.10801960818297157 0.06024922415991966 -0.16553734003453985 0.14527724971583772 0.12246957964150347 -0.04562577232134666 0.004428905525437566 0.07472464654409587 -0.05024699250624418 0.052460635363910824 -0.06917671709264228 0.014857166103198014 0.12059399336344842 0.023596945526722545 0.15159145625323234 0.01827696459217693 -0.06568171798902812 0.017650907659969406 0.10933074267049737 0.07989166315433656 -0.04832789012979393 0.014781348077421232 -0.1651086539192482 -0.1328394590803502 0.023198979997590328 -0.013735251953840009 -0.06609626931885333 -0.07207035938799937 -0.02109256275605433 -0.180221739793288 -0.05991632115946481 0.018245636293796923 0.14206228011289346 0.07589698559466411 -0.15729219180992554 0.12083653979798502 0.007079284523746741 -0.10022547425021566 -0.028980936947937862 -0.11525215015479882 -0.06581055539389645 -0.014751442501318365 -0.006867048203985028 -0.006192249901371852 -0.07661100765810432
tibetan_mastiff.n.01 -0.06183425550574037 -0.0541976107515647 0.11519704676141772 -0.14480860065994053 -0.032643958187618685 -0.10429684597643557 0.01950625284981309 0.11505787046664513 -0.05526437146251309 -0.01868350567824108 0.10779697242314218 -0.12967541874304184 -0.08008072419391081 0.11218280898334268 0.021018576307395554 0.07300698035785146 0.09289829056710844 -0.0023393194040988103 -0.003947903689682199 0.04117014173783796 0.08001805959684032 -0.012755264644925362 -0.08393015636036184 -0.16466345094962936 0.09562958944743381 -0.14838913220018668 0.03523004402966751 0.11415399134369743 -0.07531655841775431 0.07423057781516046 -0.03378655740577988 -0.014282513096000413 0.09501832859164006 0.22186849804144793 -0.04457454732663296 0.010974058746058965 -0.05221506030499257 0.07062870521297088 0.08655211082246225 -0.04450283986612964 0.004909358253655091 0.06251356569645955 -0.11724483937672456 0.10163969651000015 0.023127795118319375 -0.012201422132377425 -0.05343023006868647 0.04564595602173865 0.07833587275738273 -0.013294163371336579
rat.n.01 -0.0987544391344492 -0.04621280858269947 -0.05135640609669103 0.06039195179370929 0.009702284429247815 0.02630601773259045 -0.008431593405118136 -0.05449904240644121 -0.0037002738960854767 0.0007461014537068029 -0.11268500043664144 0.059322695870464716 0.03497160233000313 0.08674374963478317 0.08317960985223263 -0.036254159809129126 0.057302882757297405 0.03687463952394671 -0.09979780646973166 0.04710745315454974 -0.044556844725546045 -0.13340401174788033 -0.05372968662637254 -0.13797014131322413 0.027349436199606243 0.0006911875792801897 -0.06191159624681097 -0.06453814534426938 0.06209980803444275 0.0014500524738191695 0.004088831163030456 -0.060026515999086455 -0.02407646178944959 0.053268583744537155 0.0044408731908908905 -0.12264719895371592 -0.07578021948019173 0.032196588368703864 0.08633528963809284 -0.0005626090409313554 0.016768477696031438 0.08874364482650508 0.06422885116059354 0.07508664134335438 -0.007250109717974061 0.0742300349377298 -0.012508958731480831 0.02767962733692775 0.11289697081327017 -0.08367766334398988
white_elephant.n.02 0.08985463241313292 -0.11091318807891302 0.14420197783077893 -0.03066455107287546 -0.0009119273074875163 0.06687861182590167 0.08627596567953838 0.05549202707975453 0.020630035008221605 -0.04074161694964619 -0.04949355182636221 -0.14211685444260766 0.03449504464568333 -0.10378916253300477 -0.012864981575465352 0.14647174396203066 0.07110625510424202 0.046585643086356605 -0.12628159913296216 -0.004923571500575938 0.09868139471358854 -0.08509516918322092 0.08098793022024305 -0.020825303985250225 -0.04877418246829408 0.06715743773310093 -0.053297978392848756 -0.017764377315022076 0.08034994224280777 -0.013174695120627246 0.019020471492664948 -0.08220838921875587 0.049560996510866956 -0.000786115647437625 0.0038265800120762814 -0.03139157376796235 0.08973403880621064 0.028140014169482804 0.03773881618518618 0.0751546074364483 -0.15931586938961423 0.13763407637625374 -0.04371082973879546 -0.10255671015076989 0.191670911763037 0.07581628126429994 -0.07651544074818674 -0.05184884365442759 -0.050438374730966545 0.07550401227754541
camel.n.01 -0.03780670966836046 -0.0004192688814761928 -0.022935950519751596 0.11989580883739151 0.11362702669207557 -0.038046502026624615 -0.02227743171452452 -0.03645613811991801 -0.15862238516360563 -0.05709553261524124 0.0939938372762839 0.08783664394913869 -0.09281808231770458 -0.014383204771349852 -0.09925858290305445 0.06198870044957554 -0.09498284579630865 0.07746704995370039 0.028187323171991983 -0.18111224939678322 0.006657206428017491 0.03782136907927742 0.06171873833141949 -0.18223692498039373 0.1036808335276593 -0.010227025261518924 0.07198932377452077 0.005669003602690112 -0.08561502593671577 -0.12624343508858327 -0.05582525453296694 -0.03502838413743071 -0.0009341431897573046 -0.11765068489758627 0.0031878296144182638 -0.11753170789465861 -0.0010379390883441487 -0.13775625152168783 -0.06616055122798883 0.0992512157230023 0.017927028906571683 0.021312689830085614 0.13608087274582156 0.015792853127557908 0.07817414203161073 0.0783391489826473 0.043278838962926766 -0.06648354630154325 0.12206048506815935 0.03428300626011432
toothed_whale.n.01 0.05244507104504279 -0.05951486559853922 0.0036671290941565184 -0.02870385451325415 -0.148172684095063 -0.06509204140875692 0.02522718299631276 0.06714541403384272 -0.07890419311262396 0.06404900387085607 -0.012914924869187987 -0.11120722611885057 -0.01931298700559682 0.034409934877846 0.03217902505238443 0.14497569444702116 -0.011818869523996186 -0.03626336988351159 0.01796993149398602 0.015619908613188615 0.15115609248021383 0.017771648009629944 0.09953792242855125 0.003435798077913525 -0.011016244255382134 0.020622827694913533 -0.006729798335870801 -0.028260663838917288 -0.06225466541314231 -0.03420923316432576 0.06545367857913952 0.0798200105720105 0.06845444354675022 -0.05619307889362551 -0.09294838119284773 -0.14753962743193116 0.035572478070579026 0.020222059871754388 -0.0019601383496098725 0.051752085762814724 -0.01792091209830303 0.015697981892204574 0.04512525390331771 -0.12045271314271273 0.05285430979735212 0.013966740764361938 -0.0545383148749508 -0.02716086258594575 -0.10818547732476633 -0.08279270755299263
tamandua.n.01 0.05397225206572778 0.05787713215271001 0.008853511698996534 -0.013911023354107167 -0.05047367227026004 -0.11795220061681547 -0.03158054252275137 0.015847036254356097 0.06849780757931373 -0.19013773030200587 -0.002498104584171491 0.0392785150639855 0.018169206100369536 0.07732731666309181 -0.045471828908094834 0.11800616155937749 -0.07892525548655219 -0.08983407725407992 -0.08606128927015175 0.03314824235982502 0.05105687158776376 -0.057553851614430114 -0.05361362298456335 -0.22082714707726298 0.09255184857400396 0.06710470323443456 0.10657039350982274 -0.08928949208387091 -0.11100260150353213 -0.0615889259536927 -0.04120227123711842 -0.06750191881434792 0.11327655985697764 0.14256431323081117 0.09345791181257937 -0.13229084392805202 0.06884156452663752 -0.08922868919562292 -0.16019609146801314 0.058242261761252516 0.05092763679101583 0.058809499440903135 -0.0243991388656143 0.11195107291235987 -0.14230022533488215 0.04617704913236131 0.1426035537250824 0.04777752468749381 -0.06650136507233359 0.06777237471302931
pygmy_mouse.n.01 -0.06927854354637127 -0.07599740752102585 -0.014499104168252907 0.02085167259257173 -0.13085652012868929 0.1189682669321763 0.04997414774598704 0.1227344086462519 -0.014399373196820461 0.04729826448252077 0.13998759546884665 0.08488092562909758 -0.07278734538632316 0.05671128951873278 -0.07038176759883244 -0.1253734774359544 0.03881838543621591 0.043554073963041166 0.16576651565407408 -0.053760375939302794 -0.11306939336499262 -0.10696137368908575 0.06086627189932674 -0.022716073352673238 0.01839199939152517 -0.10957887924301886 -0.07844928703722591 0.04720367398643364 -0.025338629592505466 -0.033023867603908366 -0.006975826833443192 0.01920713942903039 -0.09797978192160264 -0.0008769198530118891 0.0007378495605674942 0.08268849153782527 0.007353155279003581 -0.07688987027061096 0.03709195697196387 0.10966180394386585 0.11573181708502212 -0.152029786154464 0.07389811297485487 -0.06971248021735652 -0.07707981306668261 0.11692789253139395 0.06086947615193811 0.024651585300032534 -0.04624294214945021 -0.1311420159065401
marsupial.n.01 0.07441766590718141 0.04812808365397946 0.01765307939027842 -0.032993943632704914 -0.07520551509472255 0.11399643595013056 -0.04891412607033162 0.04844386482234956 0.03494393289855814 -0.03198551843107729 0.07535027177497383 -0.033767742525255516 0.03454974249248078 0.06366025801594893 -0.049845055675122485 -0.12725876622414417 -0.002296225354883885 0.021074848857376614 0.11485570160643256 0.12662438355715205 0.03920644947428845 0.029915048688624275 0.06809066362253913 0.031638673657133395 -0.050384938698765216 0.008702133437057957 -0.10431438074565856 -0.0001401576894719058 -0.05457166714088731 -0.08112283590437622 -0.018543274491003202 0.08995637538269631 -0.11951706507346367 0.03751753127859821 -0.06658804085856719 0.09189131578598252 0.013365763307818272 0.03257792916290815 0.12296313737142178 0.034333177703358884 0.015344081747350496 -0.04581494873219109 -0.05182237695487148 -0.04023492436101128 0.07206420365414029 -0.039131163124772765 -0.1344866998790784 -0.1263113056264488 0.0034320940850869706 0.049132365230113946
gib.n.02 -0.04209988589570236 0.08206858547267107 0.0009516758835284565 -0.07888600149643557 -0.04539325481568081 0.006982053483119309 0.02742902886204417 -0.05063907789237222 0.08450490840724638 -0.001642588305553749 0.04637303699204484 -0.1321209766470955 0.008152805031700202 0.020251252670804586 -0.039415175249294346 0.015564022340550225 -0.09998615164070444 -0.038967091983388005 -0.10154345053953534 0.08792065241895597 0.10078491354421279 0.10423900731142766 -0.10262140270683424 0.04043121015149023 -0.07232133780875513 0.06298321259359616 0.005597200566411545 -0.027119334258004852 0.06850854911259532 0.061549620402279355 -0.04066825976454673 0.01223129594781213 0.06525648606613253 0.01490748125799739 -0.08894038812955848 -0.09261430763262798 0.05476285340903046 0.05472000354386616 0.04347725453280138 -0.02479359569598391 -0.003135002522329992 -0.13190135002842499 -0.07916644014679387 -0.10316011170268308 0.06066342473906558 -0.03453095647614432 -0.04613213378748443 -0.010313349991018423 -0.03416022877328671 0.07097906967448288
cat.n.01 -0.03874675333879958 0.07871707354434394 0.0013144475353348442 -0.07447514080758744 -0.04255082306321684 0.008099594505064828 0.02720384909254911 -0.04803744109621109 0.07995490859699673 -0.0015430935420530092 0.0445110247314874 -0.12546224183166924 0.007947134786577258 0.01968751067222913 -0.036432030209509636 0.014455805710677793 -0.09470428300920208 -0.03699940592904963 -0.09699270507259344 0.08461347954562647 0.0953300203959616 0.09921186551421468 -0.09695831349652179 0.038622591683132396 -0.06945466236950693 0.05949056915276902 0.005192930269395424 -0.024708281900275117 0.06496407247861986 0.05836235332621888 -0.03884191391400575 0.01226899121077823 0.06145914553106609 0.013751904185953684 -0.08623898732701633 -0.08696584278871214 0.052279768086982537 0.052021664604980505 0.04229795770092672 -0.024564829434817793 -0.0027753609580825137 -0.12548600595354084 -0.07606791642992271 -0.09830219057328056 0.05878180903724736 -0.03301387748869428 -0.04441389380181865 -0.011248151065638937 -0.03265347785359907 0.06742723417045929
striped_skunk.n.01 0.10258795232329207 0.06317998849104663 -0.06858403593178375 -0.028253846804154506 -0.03656843733078152 0.043448880948865454 -0.11097362746037444 0.026010271477109704 0.1347463697202385 -0.1123020486853683 0.07485886741543862 -0.052078322679052144 -0.011818323532013286 0.013613928139811132 0.019632525946671205 -0.1097479495228485 -0.004422111681719603 0.019521072854117267 0.07810936746154683 0.043822674065124634 0.023318053133067004 0.013175671248063675 -0.014016131733288846 0.0017121835078456563 -0.0015537447047450313 -0.02828477518342469 -0.042826630235958056 0.01875140544470497 -0.03888481140006579 -0.0589476530315977 -0.08018336911736174 0.11038850611294529 -0.14436737026404065 0.09666893849826266 0.017079632959080205 0.1439612717888605 -0.04476597700509012 0.029228500750721323 0.06707175830582389 -0.08166289670682651 -0.009134986023518454 -0.04271861069643808 -0.1040286474988371 -0.018623702077178967 0.1248152104345664 -0.12263980888518385 -0.14444878930274055 -0.1986225923119749 -0.00470111339274801 0.10164463876859207
domestic_goat.n.01 0.009884184797748889 -0.10207507155194272 -0.062251454747606114 0.053597037380099355 0.11164147546145663 -0.08920774874100092 -0.15377664496238677 -0.14860416839869675 -0.014599202070741921 0.04474346811099853 -0.14345916137266787 0.09820159317853253 0.006020716132551737 0.002487509566412057 -0.03834910360920694 0.04721693005925871 0.051931514110576435 -0.12469660654661292 -0.001162194051568353 -0.04738677057024749 0.1336022942717249 0.012054345375820237 0.06054183454579289 -0.12727316357485838 0.0021063899463897836 -0.0013518330925523679 0.13326367271338174 0.007510810711340102 -0.057710242147145575 -0.06897030338356103 0.0070305172209217505 0.11649309130561514 0.09786001388842598 0.13162182401584452 0.011062314454657406 0.0389144269693945 0.08582744568616955 -0.04094952461089141 0.13669561204805164 -0.03307635704383035 -0.011200034064388506 0.06551971912039484 -0.05468216760782285 -0.06069738947580506 -0.07697035615283748 0.03626809380099538 0.09482129655509053 0.043197286481955234 -0.09058412591153038 -0.04355341141078477
rock_squirrel.n.01 0.0015757236283848097 0.053497890585260895 0.026185010487380693 0.029355214498029813 0.051675697553611136 0.031240704774260296 0.07161588987548126 -0.11919171930437067 0.005876089268130264 0.0038383612677736307 -0.033450294689972834 -0.049666688957408056 -0.024030957246724736 0.018200841237150343 -0.035052714194045924 -0.014665362415243093 -0.04493305058049999 -0.020403930517120503 0.059975597419585164 0.048106930721716706 0.02398827164446531 0.03200293810374703 0.05914868502018804 0.056343132359694334 0.028742210611057334 -0.037565811039253404 0.034202300286839876 0.07258045164708722 -0.007758444731292865 -0.009582553267851892 -0.13123822654412884 -0.0442765277652936 -0.03434753823181559 0.02887562138581812 -0.16377890960190028 -0.038645626013521506 0.004789667114892748 0.06722064137073594 0.04808059095856288 0.05658218977195278 -0.06478401727000092 0.06153537669095112 0.07519116282069757 -0.036548290113462466 0.043442439178934165 -0.03137458055734878 0.03290663053792214 0.005088294173533608 -0.029564030068111573 0.02203241278423992
ground_squirrel.n.02 0.0002824862470622478 0.05419376966327827 0.028424828781549016 0.028891544847043944 0.04856931741635113 0.033461093220567555 0.07195858548258824 -0.11508832862073848 0.004108218981055969 0.007364320191651009 -0.03195454740297626 -0.04913103684346497 -0.023522891922514506 0.020978153315020686 -0.03670835518638784 -0.01628978174179693 -0.04506344778165985 -0.01885372091240373 0.06343883165307465 0.05044331876834507 0.025668982111403667 0.030588878833751977 0.06010068223254271 0.057446305459283656 0.02876297294741927 -0.0364423577218311 0.03118353630171986 0.06991106849552892 -0.008568381541486144 -0.009435155082788051 -0.12687404993628748 -0.04209457831621 -0.03429002681643635 0.027586887218060196 -0.16294477486354214 -0.03793651143086418 0.007866597686208237 0.06538219086862035 0.0516215141319158 0.058567836380275615 -0.06250706044938252 0.0591216767259086 0.07568067558729952 -0.03670903661592463 0.04313564322564728 -0.026962316343647454 0.031218823653847014 0.00881978727830642 -0.02858862166825625 0.020369670799209174
vizsla.n.01 0.016716982959123616 -0.09113324586365888 0.02782546110959618 0.010662570191993972 -0.008955032413097457 -0.06178582766639933 -0.09682812956586344 -0.024860599953427126 0.01574676599445364 -0.019669967141228095 0.0027029816304475476 -0.02467260911102224 0.08716486738254497 0.036558126435995084 -0.0666496822629655 0.051135977803053345 0.04727246345380348 0.049713239959256625 0.06830833799919955 0.10258076147026865 0.03160287065449524 -0.10084217464460822 -0.01283468215402574 -0.04261696484474687 0.12535133594881845 -0.06075549017649325 0.01622368348455867 0.07483853646937341 -0.04222777218462526 -0.038307392960411094 -0.08573974441522916 0.025126381048115175 -0.04508260712063654 0.08499661125511099 0.05961140931375021 0.028807249658860206 -0.10520108349886913 -0.15173716633627565 -0.07800858555749117 0.03990406386621131 0.0709753057858815 0.11386788276765601 0.08037401623448207 0.02129939773735837 -0.05126319734211472 0.06932715051958721 0.02378992332998362 0.0266141052949537 0.06515248036927754 -0.02185069971287119
dog.n.01 0.017339022384969795 -0.08813537190976407 0.027686463700453554 0.008668754950256544 -0.008670158455707185 -0.06003247600380958 -0.09243337292440938 -0.02372903859846917 0.01473990709180687 -0.0189909496947714 0.0027220657835588338 -0.02352047187799649 0.08338169846411456 0.035435191568840375 -0.06355108328646461 0.04887184181749069 0.0452373700354195 0.04601768014730955 0.06415394369304915 0.09709983894035377 0.029930742382818856 -0.09563433224892659 -0.011174130093043268 -0.04124409989246693 0.11827773671980915 -0.05842130158713342 0.01594647805079882 0.07068432743680378 -0.040967957701143407 -0.0372556324351561 -0.08137321043098152 0.02301935924136168 -0.042016034113332844 0.08043710757823043 0.057379915760945976 0.027392722199452765 -0.0998810323600959 -0.14470891239566006 -0.07371391759892511 0.037564758797902706 0.0669825347452642 0.10723425882187113 0.0754233726496408 0.020694567194610637 -0.049764411279626386 0.0656734843776515 0.022788467073788617 0.024178695840252937 0.060936485216381564 -0.020669006190636906
dandie_dinmont.n.01 0.09034986061614601 0.053459997815944 -0.06429606039009782 -0.026113838157037828 -0.03126651774210482 0.03923888935768314 -0.10615290034633748 0.01615872479389362 0.12321238615958269 -0.11087149132594415 0.06850093000043571 -0.05141067693485315 -0.005625671273995789 0.0086641721272687 0.01839269700506667 -0.09633525386739206 -0.009153485854889917 0.01390305401534768 0.062068344722777925 0.04034805058852893 0.02138129516479853 0.016003971911029525 -0.023979943815523982 -0.0026964138170217393 -0.00023206766266230358 -0.02807494534741549 -0.0360012018178534 0.024582237209293385 -0.034602556510356056 -0.05225253905448604 -0.07410109742444547 0.09723318442802921 -0.12748826093688026 0.0929574657484208 0.01335238790902838 0.12759715706813035 -0.046400028398359605 0.02600992411878568 0.05503971405882168 -0.07600218389627202 -0.008296487301645832 -0.03877677581296177 -0.09817948375412132 -0.022062916662064756 0.11107933629029332 -0.1120009997258617 -0.1334910875294277 -0.18428923800712352 -0.002859949588999698 0.09906979197178654
lesser_kudu.n.01 -0.024087641554791903 0.07394195577388395 -0.04205785334934944 0.005119733513571046 0.07455839505747781 0.037678186759915695 0.1107087410796583 0.04483850193914507 -0.0934026723437626 0.007136970783296685 0.005581842183201494 0.01908413279845027 0.026297535791125985 -0.0603821829794173 0.0770406138640476 0.03980292140295287 -0.033817470802543985 0.04787296266046526 -0.02355187710489008 -0.05802217325947286 -0.06435252263556371 0.050672161320165214 0.09917761362564849 0.18395489762358697 -0.0026792991213268093 0.11442098165934744 0.03210545176670979 0.043103479835253415 0.14503397417303507 0.0808414826818532 0.041980552439256046 -0.04455621650469354 0.00386027602766665 -0.15700769110332635 0.00609864970325262 0.028409842471707678 0.09604039504669323 0.0407465467057921 -0.036652060598043684 0.08232434389367946 -0.016963769620662397 0.009995152204158766 0.04129944151482882 0.015051749156570732 0.006388259993130206 -0.08606553670253513 0.09676479572998758 0.06204723066980556 -0.05233649271411634 0.011668741924130397
water_shrew.n.01 -0.05065073458355548 -0.0932856244797236 0.030254684994820945 0.02550624788705014 -0.038965284837619164 0.027468570505465747 -0.014900439011318937 -0.008610710535325226 -0.02081768134794012 0.058288646483465226 0.023551001934740957 -0.04317575918652616 -0.09490087703633815 -0.06840225518213436 -0.09231988642513085 -0.058042598565525544 0.002552999949661637 0.05515569306880839 0.08680499981259421 -0.03384089615319648 -0.07819953904857072 0.055498451442586944 0.015077024046284889 0.043878914186762416 0.09520380436288502 -0.04720180204725486 -0.03893990424502649 0.011397725371399424 0.05592979340288116 -0.06604156112567755 -0.004530858807895122 -0.04154165614912202 0.042563971218565366 0.15111085609168343 0.08646813367405866 -0.02359833039681286 -0.08978111284434416 -0.045911249968071756 -0.07790855970646379 -0.0055232451413978565 -0.032995049764939534 -0.02899219194691604 0.07590587335906383 0.07516260319599238 -0.14125474421262874 0.02898999527116433 0.02302422222470193 0.09067293355788031 0.036260845419393437 0.05951778698814285
insectivore.n.01 -0.04740505719460627 -0.08836020848449967 0.028729687024548135 0.023637076847816307 -0.03695327653087147 0.027510854141122677 -0.013389426341091755 -0.008255777308380629 -0.017592145647181916 0.05652260556144217 0.024802588612525694 -0.042233698633066884 -0.09196187517402815 -0.06751892632242226 -0.0890184071525655 -0.05998049574370899 0.002598210858312418 0.05328975473773075 0.08330396752113865 -0.0311622581209137 -0.07872756340418223 0.05655341535735824 0.015219790432033255 0.04455353290127331 0.08995199957956476 -0.046244153575757604 -0.037049336624439815 0.013715319548439908 0.057067501202104486 -0.062020174001670904 -0.00683657378751787 -0.038755933384909395 0.04023508535825839 0.14774887057419256 0.08411020291156507 -0.021057264499079263 -0.08707331223248767 -0.04431118488039426 -0.07690767056309766 -0.0062870249315904415 -0.03127525647957393 -0.028966436202117512 0.07438780714723223 0.07142190530316486 -0.14008186162537536 0.02592476912363587 0.021734935036199658 0.08477571517516638 0.038046823342525286 0.057162756717420965
silky_anteater.n.01 -0.021659810535758873 0.06959181248187124 -0.04121803723851395 0.004699366402487454 0.08254795038980066 0.043388127657855116 0.11784589919672832 0.04905950462677685 -0.10162921979852454 0.004566695268783087 0.003695981807818649 0.017811788720166685 0.029364787974309997 -0.06754366921963048 0.08250331544213899 0.044142668451922426 -0.027943919324674556 0.046657310414497354 -0.03735414542383843 -0.06238820667043322 -0.07152862037146432 0.06183339547908708 0.11115101400524596 0.1880316615754888 -0.00650811371498353 0.1186940713091894 0.032105944050159825 0.046986587184117724 0.15435202994823494 0.08708416367413643 0.04004625739753596 -0.049759089304953624 0.007143362568536045 -0.16251384934925353 0.002216654140704194 0.029365993874639902 0.09997429273251249 0.04558337393569385 -0.03690949589221405 0.08505622899242417 -0.02515028919621316 0.013288746201025416 0.035721671487600234 0.015482496700794733 0.008714524753699614 -0.09505246480845327 0.10547216529626532 0.04901164155438413 -0.056651814411723865 0.014497909323145475
giant_kangaroo.n.01 0.07151552769911393 0.04569230483102394 0.03874711439004413 -0.03586877934966301 -0.0912698462611972 0.13845913581041708 -0.040290601104914524 0.05724937307412239 0.01566404539343243 -0.017273120109631245 0.08247207872824637 -0.031137173026507196 0.050787979928968954 0.08178751727542354 -0.07286834184846745 -0.144750721903089 0.003596103888215169 0.02413673473094241 0.13419254993630594 0.15521529113992197 0.04685855852666209 0.03331332920569091 0.09502021196796254 0.041152808808532754 -0.06292872605957724 0.01854439509885651 -0.12706251452903564 -0.0030922236718552445 -0.06353713297416042 -0.09749605883118248 -0.004856555947458991 0.09513791068735031 -0.12823540910221 0.02255803098505022 -0.08889566976407624 0.08948566445074688 0.024211465147510432 0.034840770958071324 0.14410956373712966 0.06552014087384382 0.023836495286126084 -0.0483835564997533 -0.04273374721638572 -0.0493307461148649 0.06374291561090625 -0.020103515205449975 -0.14534258621351637 -0.11454431742791635 0.0047943461854689185 0.038565588483867715
seattle_slew.n.01 0.04792715722984514 -0.117754789596427 0.009896886840225234 0.0739808615935108 0.006066107265918951 0.0333903579051714 0.010417905861249951 -0.1046305611467028 0.11334499159658867 0.045379531732374016 0.04959568182161435 -0.02156889549541136 -0.06462972651626371 0.011164718750473772 0.011891789437038888 0.059784034566344034 0.09024640503202609 0.05371586711008603 -0.009104764637365039 0.09917864784172978 0.011192358190979523 -0.05819417553205174 0.025051995806538364 -0.1263427723605002 -0.047512586748213605 0.07413560256805118 0.001081546258724286 -0.05544846954302099 -0.16748709090909666 -3.0072005183442508e-05 -0.010377399769650176 -0.04624847969693728 0.06252971435390224 -0.030716876442026 -0.03425433026996187 -0.035931284340823356 -0.005705854143274426 0.03544516026685739 -0.015055383506449523 -0.05915337898967622 -0.052843263216605395 0.002961712287118627 0.030608132775446165 0.12259629517936318 0.03891969426655256 0.04267384122957149 -0.023638527684854582 0.005060498624514331 -0.03664714495286511 0.06566262387218343
thoroughbred.n.02 0.04553549806572517 -0.10961456142938421 0.00798691725234398 0.06946932256833492 0.004752262999748388 0.032656300929140854 0.008318335610129804 -0.09790994160810637 0.10948653540227668 0.04014491682014983 0.04773631463502921 -0.02062227999207822 -0.06073610748278273 0.011057123445568475 0.0101536644911116 0.05437896507898637 0.08384465871975424 0.0509282596698512 -0.00690384936950662 0.09479111733881232 0.010881936101202468 -0.05462268042695412 0.023098114794940432 -0.11907250122096359 -0.04402883482275563 0.06925004528142151 -0.0007333684856361518 -0.05144756680582248 -0.15751904441088282 -0.0014477409950962626 -0.010773804911613838 -0.04127304076255858 0.05626790304894178 -0.026729131772680523 -0.03168768736756958 -0.03209702046935244 -0.005801461263855008 0.03332610649880517 -0.01386532536198478 -0.0563931131639986 -0.04848853467249981 0.001127376472589771 0.02862953851339803 0.11501377609236041 0.03700223766926572 0.04029092590849242 -0.02398851156589174 0.00234766467462853 -0.033904895754066945 0.06385431420626796
boxer.n.04 0.10076086538765304 0.061509874223935286 -0.06962005157341446 -0.027956125574167823 -0.03255294700700841 0.027786571624854657 -0.12181150573770579 0.008180329760517186 0.14701901881644727 -0.11136858919684899 0.07019007524032675 -0.054516344147764885 -0.023629322656639074 0.0039707959765076985 0.02318273645690018 -0.10483375846455668 -0.009129514107400344 0.019159226762812367 0.058229530367685176 0.037489272454499206 0.01980689047468417 0.011483483071883526 -0.046113616569984556 -0.0039324695974048765 0.002602174382133437 -0.04775949534658948 -0.023378393799510108 0.027826689039847013 -0.04302409948533639 -0.04846800549740749 -0.09297822774298392 0.09946533854235463 -0.13268104995253904 0.10958272401657043 0.02425448462736354 0.13446919337262336 -0.07074873029566649 0.018583631509101913 0.04322404651796115 -0.10574213150719879 -0.00798037858574676 -0.03844157019522019 -0.10408255277450557 -0.02055413914238406 0.10930672613521035 -0.12847023136658975 -0.13697814018001664 -0.19731630567797231 0.007492170447543559 0.1056846829073952
rabbit.n.01 -0.02188647248176023 0.06586154087513585 -0.03636164868581393 0.0067087317068226775 0.06926213711058911 0.03360331938161704 0.10416586661733201 0.042428921089758535 -0.09035368119089943 0.007556608491471482 0.0017141649972969605 0.016191111673695736 0.025168133313789184 -0.055135152552356195 0.07440401790006848 0.03997199339510788 -0.029911153286427815 0.041057018044138915 -0.02523830344685389 -0.05427815255343576 -0.05933073873134464 0.04846484014278892 0.09211392615815901 0.16869243862237415 -0.0014236005712120708 0.10433237059584427 0.031929251221551734 0.039195360949986026 0.13638743383495483 0.07587469002913806 0.038518747749200014 -0.04230615079336135 0.006771852626992892 -0.14345481364411627 0.004388036791886551 0.025533848780045238 0.08994439912879224 0.03508605086734316 -0.034426641756501696 0.07532118987935481 -0.019454318973020683 0.010835416411649229 0.034254833783890645 0.012404316522097097 0.007264091284326162 -0.0790256330324053 0.091123396112541 0.05556918722687769 -0.04897301591336916 0.008893738291389626
longhorn.n.01 0.05453925934492503 0.11234855746221732 -0.005240955774737583 0.0575465862547634 0.004859760595439782 0.03958470994567003 -0.03602018779370478 -0.08239997264347966 0.0042336745402802465 0.11298356549000468 0.09999316588239679 0.025186230233717674 -0.09285141023734374 0.013585296805852893 0.0418549337880441 -0.08599722710171696 -0.048307582070607806 -0.01123241368838285 0.004874509034185515 -0.016759322002560133 -0.03163217824499102 0.04575850465811293 0.025489521723434425 -0.013692637390285404 -0.050599236654534197 -0.10487129761209851 0.017700844170298918 0.10048374102933323 -0.009299048815991879 0.1239137640452749 0.01685255872352185 0.047099685334278746 -0.036941503801538496 0.008343177273573883 -0.006285339918244629 -0.033686691530979716 0.0122442342175575 -0.13261393092021437 0.11248342513405296 -0.003604984962117746 0.0944132813872163 -0.011424428556005525 0.07838349693681147 -0.012981856171500376 -0.02077568764155259 -0.012057183861228116 0.049316976220562865 0.07107860145454616 0.08377502864263352 -0.14114977100591303
bovid.n.01 0.05313834045039583 0.10626902829909335 -0.004836536038447593 0.0551197929684134 0.003940218895041668 0.0388621025413965 -0.035096808500664455 -0.07951843881430438 0.00358115256202463 0.10774067675260933 0.09622390555729785 0.023743572763029797 -0.08767906966197796 0.014488683341327682 0.04018298574152054 -0.08279857681147824 -0.04663579735015352 -0.011312269749151919 0.00515231319543919 -0.014526902856425524 -0.029754020328193364 0.04363412886659984 0.02520400208974845 -0.011368840964551784 -0.04895064867964442 -0.09988113091604466 0.016453653984554666 0.09619871171380336 -0.008466855327520537 0.11774675107882802 0.016464377505319108 0.045393047039853814 -0.035840612195242025 0.0075759134167307975 -0.005767657400581753 -0.032344816785178525 0.010952032449882965 -0.1270633270376283 0.10734400917427983 -0.0022936735988912643 0.09082730537970814 -0.01096278613519051 0.07363783318836777 -0.012346519006278192 -0.020668466743073644 -0.012094704115705157 0.0470727718536124 0.06772822896530994 0.07916533538111144 -0.13459704366217687
blue_fox.n.01 0.012039842766889183 -0.06648501281857871 -0.061599468646387136 -0.003978412873605742 0.05285007770869416 -0.014806703443608219 0.01016637204988189 -0.10703838987537795 0.013197897800696122 0.07518869681563162 0.015397379512293622 -0.037258689620647045 -0.036048872270396465 -0.025667686120150714 -0.009322115401034153 -0.03985966691176033 -0.008870797592339436 0.022643913706130427 -0.1320065630946354 -0.07443612090895123 0.047035307695883315 0.10453738463964433 -0.07517447210822414 -0.05319113650438107 0.04987412117310534 0.011350630608155844 -0.001529850985441609 -0.08047416335255402 -0.11954026493856096 0.023639711527234944 -0.0421770775421186 0.07155547579203576 0.02369539476615943 -0.16849856247837033 -0.07571567158796651 -0.084872263105027 -0.10294809047686754 0.16177987506128017 0.03212776933690812 -0.06183572434438668 0.09381652440394019 -0.0822661796105606 0.06606760176166207 -0.01746660553455528 0.013638762037837253 -0.03904828873968749 -0.06438386754835121 -0.07501227533114065 -0.0469761448883759 0.04167046605301111
fox.n.01 0.009906019858641247 -0.05806569095990516 -0.05581161654260725 -0.0045583097396151556 0.04854373923339388 -0.012978178923372649 0.011084014151811289 -0.09502732857512065 0.011039311324405783 0.06854644209590156 0.014951433458652848 -0.03539471724897892 -0.03221778277684749 -0.024588949582103527 -0.007994104992681024 -0.036134767747405226 -0.008946782072978256 0.02058749358561069 -0.11852385534942703 -0.06717489594160934 0.04090540386360312 0.09737873051776312 -0.06882035313700144 -0.046191732801384076 0.04580061495058451 0.012002696298362711 -0.0021822545303308394 -0.07290434404788451 -0.1043307191040414 0.02341203994572882 -0.03895954018719327 0.0642592277051693 0.021186704616202836 -0.15419681496869583 -0.06886650221362459 -0.07731715486940531 -0.09153377634012437 0.14840181114657414 0.028396139228463284 -0.054276991545902833 0.08498811094262339 -0.07558294175252143 0.059281269951222945 -0.015716232144453703 0.013740075517810908 -0.036844527861819736 -0.05740434914344454 -0.06826457641406727 -0.04200817122216728 0.038188105701380794
new_world_monkey.n.01 0.06845023565917097 -0.0360466045980672 0.032263463556981765 -0.05385953811196356 -0.06545075601162609 -0.008270447279858945 0.02557420714572314 0.012286346934848903 -0.08427951626601689 0.1054122891511064 -0.016688870751965696 0.09130541413501596 -0.012195605683923501 0.07192090930837192 -0.03453132724985723 0.11325676454272242 0.06254295305790744 -0.02734348208251794 0.052637854785032315 0.06524084615612853 0.05822722294303681 0.0171017368300172 -0.07070995627576414 0.020729165516966484 -0.06644522233583991 0.0134992758189263 0.035373000921440745 -0.06757377651748517 -0.13888859366573197 0.06022566316821781 0.016646966656565454 0.04131991571681376 0.058200535633795465 -0.0726057950830519 0.06547819542400608 -0.07064004809203508 -0.016070289493496683 -0.024415918211644284 0.18293412496225564 -0.038835199919420964 0.07994890081365974 0.04345152502872164 -0.011567689951704957 0.09151095799525243 0.03490959655287617 0.09958026498781772 0.006958174653900161 -0.0019458408920254163 0.025842585704566733 -0.046000410284235196
vole.n.01 0.10134099710439863 0.059205820941928985 -0.06413017636744087 -0.029662570831786503 -0.03564823054196086 0.042315091464652975 -0.11133239655762926 0.0210635610672722 0.12616734706626226 -0.11256105563500803 0.07676189091630338 -0.055630704141324455 -0.012734067358421626 0.014175730673822523 0.021410860832549124 -0.10368643685353324 -0.010426222318312377 0.015543562976013609 0.07166925882643022 0.043470049321058295 0.026874808196207287 0.01853191947363837 -0.017742064359099176 0.003591494989401371 -0.00874187860772278 -0.028908612902747717 -0.04025201113732034 0.02487293813065467 -0.03675169146709415 -0.05403815521833069 -0.07380429760249403 0.103344163318696 -0.13026611016828693 0.10156227677948448 0.019663106360030512 0.13555231684373023 -0.04477444209524825 0.01886809420454502 0.06130443793644177 -0.07687713448145005 -0.01173865660805472 -0.039697913681689054 -0.10201077804990852 -0.0218925217575137 0.1212668255770773 -0.11976135262877412 -0.1433713954992667 -0.19358345496777082 -0.004173794107864327 0.10068137951858244
western_big-eared_bat.n.01 0.05165673791966173 -0.0446149275732949 0.03028823604806383 0.04613309732295777 -0.03897670056677439 0.10478519474122043 0.06291973970917962 0.07242200153732177 -0.08564337432183537 -0.03676184218491409 -0.10004408135990699 0.10330206098870191 0.07387397240001564 -0.02107052863032733 0.01236070829590712 0.0554359899387634 -0.0014456424887646503 -0.09625852782790392 -0.013480864218322994 0.029769438111905817 0.02391358262226955 -0.15412150798530827 0.02983208383555928 -0.08609267744688592 -0.0866164217737181 -0.018004654383958 -0.05975767273296259 0.047449692449243804 0.08225364159826624 -0.042401682690905655 0.053768369773158 0.09200210661885053 0.011177987221914968 0.06660135326093501 -0.008261240562317003 -0.013490410590487265 0.034844818445466046 -0.022836695761896085 0.07277372454949926 0.05981745435615699 -0.02443987330326404 0.04536720421507741 -0.10482123043877294 0.03975926766214417 -0.026817033534234577 0.11895038555080288 0.08389133032231 -0.03418956849128059 0.03142311875443059 -0.03380243564994549
long-eared_bat.n.01 0.04955566349382852 -0.042101362259182144 0.028325505655984906 0.04380692820241381 -0.03746048850365196 0.10046026860788095 0.05918760505697535 0.06915045257965549 -0.08169977830275658 -0.03612480052054807 -0.09496683307188188 0.09855284691234156 0.07089381878472821 -0.02061668144850351 0.011227797659999112 0.05201044349670105 -0.0015370557425836732 -0.09224335671879297 -0.013506508748451697 0.02830407133978626 0.022580365063564208 -0.14597992867992743 0.027730787600711976 -0.08205752831602402 -0.082957269485052 -0.017118776750184632 -0.05787993798158873 0.045420517454457354 0.07766608685762116 -0.03981094752356733 0.05171282082930977 0.08725848870246468 0.011208247058994208 0.06435677302512519 -0.0082423227168254 -0.01251325082243778 0.03264394683983538 -0.021839781856559333 0.06869306978530264 0.0571490350992081 -0.023806091087066054 0.042803151007531015 -0.09972976192950439 0.03818638116664734 -0.025846203858043856 0.11375877965638767 0.07987691717673387 -0.032627713958595976 0.030212887025636185 -0.032700743596593716
coati.n.01 -0.06737310534118794 0.01572982325921815 -0.028778730895177986 0.00918091909421023 -0.0730372385801971 0.08059736312527738 -0.01369910776763545 0.022827053615747078 0.10197326643621246 -0.06952368475305797 -0.06155432962252398 -0.015544182715778797 0.07400500342944626 0.014620392369992808 -0.08056341711472864 -0.058788172263087114 -0.11488665111536446 -0.056765206219398026 -0.08806529659329362 0.035308523879479595 -0.03177762414499057 0.05288762087480002 -0.030087124577056392 0.019818197345387447 0.08595864497306425 -0.13355550004498257 -0.14949794254032556 -0.07844623915666005 0.07862291687762682 0.02840381641465634 0.0464316109818682 0.054197090390420415 -0.026141444582945032 0.10063710981824923 0.024186291832295027 -0.11690583064397132 -0.01941525705841288 -0.07524171868385242 -0.02193818752815961 0.04626057848313373 0.12820183787140185 -0.10708965288575178 0.05618585250738825 -0.13454544408627034 -0.1314030359014438 0.14668362558559725 0.12311694207575316 0.022951743966578734 0.03407999764891925 -0.049976641314379594
wild_boar.n.01 0.08690567636863421 0.05724271443374056 -0.07022621376038567 -0.021944225606974576 -0.032528603443884405 0.022101544264444037 -0.11125752335172631 0.021094458642102607 0.13350527062810477 -0.10784261416337096 0.06045469471111404 -0.05227566821068012 -0.01908722093721699 0.002079528231135774 0.02384693106119889 -0.08672787250003211 -0.012822770291043754 0.017949857045061756 0.061202884110417036 0.02363775666640443 0.0200558239372148 0.0037144989694043533 -0.02627128170197355 -0.00200915172796828 0.01087207413351247 -0.037360917860123355 -0.02576909051209762 0.018172804455826887 -0.023951299188003282 -0.03939827028725051 -0.07666720237029537 0.09997670220685863 -0.1286044599260939 0.09849087108614857 0.03341099115911046 0.1291743541258231 -0.04866415811587226 0.019159575642711056 0.05219212451365574 -0.08255410111367005 -0.008256062714801065 -0.038724257645432664 -0.08888232512656341 -0.013324415054423838 0.10803180941818846 -0.11445234287210443 -0.12047627335627369 -0.17366501426934589 -0.0027167537763128644 0.09900878734978756
post_horse.n.01 -0.021202847968270502 0.06350693577818656 -0.03674675325627687 0.00534931810189178 0.070788619385743 0.035028963227865105 0.10377234895610099 0.042644599056904625 -0.09018596614778072 0.005814667127678033 0.003125210106624588 0.01651524541900753 0.02507481157202505 -0.057220634648270506 0.07113417994007189 0.03909707861665485 -0.02874783053090844 0.041195843572080774 -0.0271546007652277 -0.0554380686190467 -0.060714092480006115 0.05015087453198191 0.09476002188153244 0.16534984683222642 -0.0027274560613363133 0.10447140558274874 0.029824247304489404 0.03799569429286088 0.1342561438749933 0.07497319362369576 0.03732026863470469 -0.04253900474659496 0.007136946483582519 -0.1432829289646162 0.003867295742869393 0.024659544097492207 0.0898374881255531 0.03802187499206334 -0.032587943329227036 0.0778617509839466 -0.020003894355897084 0.010726919727288915 0.03561808039803658 0.013765291960554094 0.006240135279568209 -0.07832134146567833 0.09120251806362971 0.05172223244294417 -0.04856817142952094 0.010249004655967753
australian_sea_lion.n.01 0.008015353060791706 -0.06344107836273406 0.08772157336757218 0.10219127201029403 0.052147620497264006 -0.02315669822712834 -0.028650733605496824 -0.03424986549758536 0.008446098025226556 -0.06355453497484644 0.03005357939754996 0.043057773858603106 -0.05083261692687141 0.022446817988099457 0.03136684788702797 0.005915149892511253 0.024354548693032205 0.011174124474521449 -0.06895877320808444 -0.03399313634651069 -0.011201028058773082 -0.08844386523373378 0.04530803571370203 -0.09929191923225839 0.08041204200628023 -0.08112095405704528 0.05010522533782375 -0.1072258149782555 -0.03676022679014871 -0.10865788419760425 -0.054265152975274 0.02903140411647876 0.04038903635890596 0.08587883410122274 0.07642808611137883 0.005991379846134083 -0.051620655912028635 -0.03162143045296238 -0.021733549524280357 -0.05642250385587381 0.01584607061330301 0.04654208711585168 -0.052390257060159276 0.07681303628266947 -0.10805092534779785 0.088459811932327 0.06625508953116274 -0.006663064839196972 -0.012832677749245139 0.06875296720254225
seal.n.09 0.006555392373903854 -0.058458541560088284 0.08217560203549068 0.09474034586191273 0.04743521684501016 -0.021128838669900275 -0.025759091978946172 -0.03177218049096687 0.008184944669043407 -0.05816021585387127 0.029508834683046836 0.03853864066362636 -0.04778828479206786 0.020642111996614625 0.0277286078965717 0.004352609959653504 0.022778824327577614 0.010079764306585193 -0.062266667035911646 -0.0309266789844548 -0.010499038557718277 -0.08089877359129659 0.04132039635429618 -0.09226439182061359 0.07432835224413951 -0.07639082637848273 0.04539809218672909 -0.09990234838244731 -0.034623553712249726 -0.10047752904946311 -0.050069759341825885 0.02689267818112337 0.03703030108186231 0.0783610419545332 0.07079611797804827 0.0039477416671009555 -0.048452828342539965 -0.028815274345451468 -0.020248551391052444 -0.05134192212310274 0.015612260254181254 0.04212313488780711 -0.048126846856845484 0.070854740530444 -0.10038354681491235 0.08315337343825567 0.06072073130281844 -0.005407823805060915 -0.011583350164763735 0.06299458090860825
coondog.n.01 -0.024318370297588494 0.07458557921692238 -0.04305212891280943 0.006664174194482194 0.08488379405315274 0.03994192255423503 0.12159597886831412 0.050816958454519605 -0.10757042725555724 0.008285181810783396 0.0034029006176984327 0.019540960140159862 0.030230084062341827 -0.06935131353045601 0.08573983187483461 0.046405664360872845 -0.0318257937825199 0.04761555691140612 -0.03614044660273995 -0.06774645358942494 -0.07252085862582627 0.06226280718803024 0.10877732970591637 0.1931472859043852 -0.0030297908448467183 0.1217056925890264 0.037397260220083876 0.04827066248386463 0.16013548689696158 0.08919506242236037 0.04386322530527633 -0.04887430603156137 0.00926506877221167 -0.16958351951436212 0.004382758117277056 0.030182240898767254 0.10464225105402786 0.0442008016307088 -0.0394492992438428 0.08651319279858316 -0.024298640909035597 0.011553789274997436 0.03873760210329539 0.015298699418119066 0.008617238244587447 -0.0951454582799386 0.10543625114548778 0.056540191567383685 -0.0552285504764697 0.011599543758162655
schipperke.n.01 0.0792193609556383 0.04746352823055275 -0.057515076426930586 -0.02272217985495438 -0.02924376615921792 0.027252568282179937 -0.09636832067451373 0.01575040299571872 0.11493218251848332 -0.09826688073794633 0.05928393529722329 -0.04713042055323835 -0.011651005330649729 0.00715217671447654 0.01736455043908118 -0.08151342050654478 -0.009374670613693773 0.014625083355946158 0.05445986877770389 0.031211063934423418 0.01987190802125827 0.009279999447275401 -0.021395278799419853 -0.0023661374482863095 0.002743003754775594 -0.029373803891959954 -0.028684269875376298 0.019865791805299394 -0.02492443977626446 -0.04162007945246947 -0.06738051997417245 0.08693361058163085 -0.11220242162200379 0.08835721273538437 0.02096491764549193 0.11226288410464116 -0.04294216409219764 0.016811244220271 0.04493451626285122 -0.07051372833443914 -0.007940390851891384 -0.03436784436959401 -0.08284141899309785 -0.016417599471106305 0.0957583527189693 -0.09879709996714675 -0.11203664997833387 -0.15876033532962777 -0.0020390088028422425 0.08824304440149176
black_rat.n.01 -0.05934983499869552 -0.0911404499830232 0.0751389635237938 0.09675691401090365 -0.04053289199612671 -0.10608438987354143 -0.04686038183292655 -0.12019634725432227 0.012638756451823798 0.04920747101618711 -0.07620776339966809 0.04231533216559161 -0.0530524769582002 0.01780032361902487 -0.07097078383362494 0.038704334420287985 0.05035820194524967 -0.008613551012565251 -0.10574952340514805 -0.1049664653295883 0.058441769214627994 -0.14007919526717644 -0.011803414736481726 -0.045346256682573964 0.032308237315961136 -0.09592533282822084 0.09641078417305449 -0.05712277269534616 -0.15713279041399353 -0.07458469168984543 0.03358406529493592 -0.0401470175185951 0.11547304492194241 -0.008193970079714431 0.08335808912434178 -0.0249182164975 -0.09445636473833954 -0.10918018510695549 -0.07713379381490774 -0.05371437765258188 -0.0234642876722981 0.044942681945402164 0.10850874313283167 0.00595559109125072 -0.09849800024337821 0.0974321092118139 -0.04745284052947439 0.11955309992114191 -0.012524908426985467 -0.056841471993916454
waterbuck.n.01 -0.03258607199696591 0.09235253191527734 -0.05122807128750228 0.007040663430642596 0.09985255249713906 0.04779137372550577 0.14820641161873813 0.06263482370270065 -0.13151100784944142 0.012491381240396858 0.002689139601352913 0.0236754093491776 0.0334201230640188 -0.08263206668412248 0.09957858904249957 0.04938693879115014 -0.03701653118145673 0.05773616960902509 -0.04348401410196967 -0.08219744377159047 -0.09056877349399567 0.08249166300417331 0.1315928470327617 0.22985809676713317 -0.002493586367542826 0.14615316095695605 0.04178831442519382 0.057678959006599584 0.19103909845240788 0.10638474997834711 0.04715163575744516 -0.05635999326666316 0.012476232191205416 -0.20279834418601095 0.0005849170189965164 0.034845310214410424 0.12398609047292479 0.05888846644110971 -0.04760186675901731 0.10224551410903862 -0.026553133939419153 0.006495009734770677 0.05123207166980219 0.016905171924845728 0.011115236437943847 -0.12089027406292016 0.12870737031881677 0.06406898460750657 -0.06630316311491208 0.014206565036646204
hack.n.06 -0.12439605764413687 0.09865472606681061 0.0535283056011849 -0.030983015439553067 0.024662940662582053 -0.01971931048698331 0.09532666572092918 0.15774948666079827 0.028468955397458574 0.02164214774778724 -0.0275960061302496 0.027833855298915234 -0.04171672785902419 -0.14172933467393303 -0.13317535024695162 -0.006708202964311229 0.07312545986578771 0.07878040930934796 0.04159241377439085 -0.0657341558528843 -0.07152743320631272 0.041688166867881224 0.0011393310389711739 -0.20246859817375054 0.045694397014226416 0.014533907516355509 -0.07295506065844216 -0.05538329610918596 -0.07004162935657071 -0.026212294181144583 -0.023039446806517396 -0.02632650246075345 0.0025708671315630596 0.055288504599662745 -0.11469127192568512 0.039616674689629705 0.1282817345308255 0.08642738070178271 0.09667145826986906 -0.028885424832414863 -0.059165101936178695 -0.02160303382681592 0.15496863051279958 -0.013496687937948386 0.08529670583018996 0.13288071310698074 -0.07481657442957858 0.01112458221873402 0.12363637599629407 -0.029207909723027933
central_chimpanzee.n.01 -0.030704228325493306 -0.1063784830711366 0.033817899161749126 -0.013108505108351143 -0.07520544291667255 0.004373844998876223 0.07820420564955911 -0.056983834239257986 -0.012798107697101041 -0.10817905529715059 -0.029978585139590137 0.01720911415046329 0.04492698730162008 0.00976396435766928 -0.14229302386711304 -0.06415973780560805 -0.03865242557066929 0.12013307900547096 -0.04994524704655541 0.033096344960209266 0.013615485180632518 0.03220827671905057 -0.07213570234270561 -0.08291955058875422 0.020015345961279348 -0.014680440882872483 -0.07016016515949347 -0.029040920282103446 0.022419511029548273 0.08435958763597504 0.009914973136159569 -0.10464118379186167 0.02007761228627203 0.03651769434188059 -0.07228971161316367 -0.06110941569016311 -0.07356982240277209 -0.1475552546860721 -0.003198346933640745 0.09144506838437647 -0.034693783989333225 0.0032878243230430116 0.04351797127468817 0.061857794303350463 -0.09093511587664589 0.17435783680219952 0.02533597334173633 0.043191289849162325 0.05320769606857243 0.0014262733059822266
anthropoid_ape.n.01 -0.028240196247267944 -0.09404076183674524 0.02965888083519854 -0.012006021110744159 -0.06737941575223888 0.0029799446087187724 0.06825935574820616 -0.049336245113246 -0.0124424724503577 -0.09400549658894287 -0.025748533745424983 0.015171885469491182 0.04032329319410033 0.011008908060260478 -0.1246032144325981 -0.0558867972564082 -0.03384718815362696 0.10443854502199008 -0.04367061483656451 0.02966569258100636 0.012408416686701758 0.028466829937301173 -0.0643314207430743 -0.07307849757184544 0.018089094662853935 -0.012731070222899656 -0.06145990107022931 -0.024874378206310475 0.019878543174275787 0.07393277094295532 0.00973285901997221 -0.09039803259149118 0.01828923322428375 0.03192820999282567 -0.06388394492000798 -0.05476536115563509 -0.0645651844243893 -0.1294483312716094 -0.0027337537281765228 0.08015516232199038 -0.02935280394722628 0.001734109879804383 0.03713569783233552 0.05408704775605573 -0.08053780425397829 0.15350678483835944 0.021708692316705587 0.03894340287686477 0.0470347212570402 5.5757729749774363e-05
lesser_panda.n.01 0.08683126871198779 0.05256895264177425 -0.06820255296785623 -0.02344192485728126 -0.029664790644609345 0.02844531275966893 -0.11093755253562987 0.01569418302482433 0.1286995499550462 -0.10996345922161863 0.06675929246291412 -0.049806664910707205 -0.015162572327069565 0.0046483836069844756 0.02069503822221043 -0.09054820134101439 -0.012234434655618354 0.01704240294153887 0.05814469986123213 0.03030169754641738 0.01955572288982178 0.012293756887980466 -0.029380931077500394 -0.005659654060096348 0.0036974961904609627 -0.03352127469927988 -0.029782430244808755 0.0222573229013951 -0.027833890651519217 -0.044131798412928386 -0.0756266183537353 0.09750089477142272 -0.12493769301303762 0.09752672858890442 0.026384926213037802 0.12604448770860255 -0.051462868525766696 0.018820923669478816 0.047682387905305906 -0.08229012770493677 -0.006945100440576901 -0.03984037593170155 -0.09117870022661256 -0.016835607266986987 0.10530239357255129 -0.1109934578017248 -0.1250321999383238 -0.1790687937729182 0.0010448746647179182 0.10039916983568742
wether.n.01 -0.011715156121793092 -0.03534681768965972 0.008913827120901732 0.02122884608778273 -0.17198918368768834 -0.15276304034776603 -0.058881785662162324 0.06464724282825132 0.16447469260068556 -0.02977226835100878 -0.03683913264645224 -0.006506815910312493 -0.04406873632346955 -0.011196032222367302 -0.12515292472332132 -0.034546284251915645 0.11868534903619252 0.012116432532142823 -0.03506032278523531 -0.004931264987200091 0.029197573552179508 -0.07950160070505612 0.034745480805326356 -0.17886923404005517 -0.087181091365593 -0.009826429547889782 -0.06440281856822 0.01678749156773551 0.0595323709527483 0.033582364285055705 -0.05424592885089688 -0.019332632374537213 -0.06118140333105881 0.09897025205609274 -0.07369510373122795 -0.00496855313531493 -0.10567936933933647 0.03200636650692413 -0.1644933766245158 -0.12595685760427444 -0.009301302329803836 -0.07889388404665086 0.09234399207797507 0.04305276116759276 0.025814315272813526 -0.07617558968449821 0.04258056179261451 0.15848054676811574 -0.03020657869832934 -0.1392968349993913
collie.n.01 -0.047837345140874094 -0.07494195427454262 0.03816077003351516 0.044087388999770105 0.02568558373342417 -0.05319513999746993 0.02122936560048703 0.03394621823303664 0.024965063470194504 -0.04667681190912616 0.04550640063348713 -0.004476919380393832 0.1358181734038588 0.07688156975200638 -0.023624999006236796 0.07698870147108647 -0.054790121525420954 -0.09362702629851868 -0.03178342788420715 -0.02166680325898123 -0.04807767341791099 -0.04218792389712904 0.02368019097489537 -0.0395553156386991 0.081566938171559 0.061220465925711 -0.005683180314913653 -0.04619549910995242 0.09020082291190852 0.03340244044208905 -0.013445398641216282 0.03712979428875456 0.0025674727742439713 -0.05519978436077501 -0.003816212566908215 -0.06012656017551184 0.08402225353535678 0.031515364121955686 0.011514684732357214 0.08921006556755992 0.04883543907758796 -0.05856700372463197 -0.03234379967199306 0.044021582789694966 0.011965136375195631 0.10059382380357837 0.04122920067734282 0.08464969701091347 -0.011416991096836143 -0.04722251540128436
shepherd_dog.n.01 -0.041701779205727894 -0.06661016030907904 0.033320818244895134 0.04057523325799429 0.02352356463785065 -0.04725620674325447 0.018284620858621595 0.03122205994416799 0.018602013132759884 -0.04322170652756421 0.04363630576562333 -0.0036686465772037555 0.11955673425724352 0.06842432901660184 -0.021423123669309027 0.07115097436768628 -0.05129496077623325 -0.08286680669321293 -0.027484765371034968 -0.020944933706175346 -0.04088133778001304 -0.03710432646721042 0.022701362328206468 -0.0381913936833201 0.07285488866162486 0.053769746271632904 -0.006874363798253297 -0.041041967734426754 0.08089643494291204 0.02949553569812438 -0.010949983034601596 0.03271171170508729 0.002602859876577777 -0.04965847675695542 -0.004832241909800339 -0.057687717184751415 0.07519355286087596 0.027441457898862775 0.008705741255104057 0.08261151977815756 0.04432718157967799 -0.05209376371447813 -0.026171193105176446 0.03853903096593858 0.013658781480717384 0.08970227221809983 0.038124882021457696 0.07414594921252377 -0.009860886182144684 -0.042658422165071444
prancer.n.01 -0.11947305908911342 -0.10003693241854743 0.04980838623224332 -0.05062948894681454 -0.008554127274080829 -0.004433075686825276 -0.012402814018710889 -0.09652933098452579 -0.031410654608931256 0.06162868387596243 -0.042119652440396574 -0.04294098627621684 -0.00269569443269561 0.05121829842231607 -0.02930709292210047 -0.012559681056750443 0.07971425218425686 -0.02308791098546784 -0.11249568237376842 0.060950923363564474 0.045383753506026546 0.10052625114263085 -0.24579021731760495 0.019537316787484514 0.031126532587713245 -0.04502388702213607 0.07260840615435939 0.13876980666449024 0.021305850735846902 -0.008750995347000919 -0.012161272804338279 -0.017698261272908744 0.10302710663000192 0.0659079574424641 -0.08309395692449142 -0.07093933085836676 -0.11522579204136547 -0.047341701061356975 -0.12577061557274655 -0.1910827140910596 -0.024301543542241906 -0.02577862524184858 -0.12726079610348476 -0.14724982818866655 -0.07070731132261383 0.028111641292743583 -0.010432444226350588 0.015361766541714157 0.053185085243284067 0.06304063796695569
doberman.n.01 -0.0201903576830313 0.06373393771608388 -0.03572852285466721 0.005407539380819124 0.07066800103379504 0.03541298079852583 0.10527844747082094 0.04405432163748875 -0.09177354248062841 0.005770554847947438 0.0036781076047799044 0.0161241441322879 0.02452653482795878 -0.056713838507111564 0.07263207856704923 0.040973242744274246 -0.027012377409334303 0.041220734616703815 -0.028546469733341177 -0.05542433228964054 -0.061149442674790666 0.052764041447009594 0.0954103434113224 0.16613750590449808 -0.003655150186869145 0.10483797766923036 0.03043821348651343 0.04120331783731575 0.13581963781173936 0.07429237804475597 0.03625875839257808 -0.04137168611766997 0.0074157941617183235 -0.14190459647617734 0.0026063878526309133 0.026122861853002898 0.09028245596453235 0.03702110194995991 -0.033601712760338194 0.07538224871305174 -0.02189993394511243 0.011045460696223827 0.033667741001122034 0.01222406296808487 0.008319760267122342 -0.08021092339226031 0.09105145676272848 0.047938212303426944 -0.04922439347187018 0.010429721813462552
pygmy_marmoset.n.01 0.06065527660478563 0.024977203357574747 0.05569555712805612 -0.1025775488022271 0.1813810637825084 -0.01670129256684551 -0.11233015116962577 -0.104479607963372 0.12025119981840554 -0.016234552019242354 0.021527966115011763 0.06497090979261189 -0.03354035607808576 -0.0388082959388477 0.03139587845602856 -0.012342112948899035 -0.06447336395122319 0.05794763622612368 -0.016274595422065757 0.028170990594906613 -0.08322964807371884 -0.14345259785845774 0.011968965361965069 0.023153957476606864 -0.15796645273829696 -0.021869771680010388 0.03851684912908664 0.007514670473938608 -0.07345568055171356 -0.09946288437174051 0.01321994652185373 -0.2082645283932055 -0.01822852413355223 -0.004945634690344757 0.11815204143661566 0.06373485968943546 -0.03049676904882596 -0.07416575378617034 -0.06687289027598807 0.005474734819742729 -0.01738323609198975 0.17424295110269467 -0.027798944501080988 0.07182529299558063 -0.1306913632023681 -0.05831716213574513 0.017508705962206227 -0.07220458772738705 0.047824673219497106 0.06378608979577066
phalanger.n.01 0.0719150361931333 0.047930320412238964 0.03971472518479689 -0.03443587770523575 -0.08991907764640002 0.1398929009650169 -0.04079551050979579 0.055409443135868625 0.016227611765657235 -0.015147975362680293 0.08033964408356167 -0.03048994625510375 0.0507609157994048 0.0796458042931857 -0.071913767969092 -0.14499792754429658 0.0017987149909912264 0.023728919013039602 0.13324099154062824 0.1548230342479261 0.04776363358001847 0.033787009227360394 0.09471979272277402 0.0401756503017357 -0.0626853514431427 0.015714109322838652 -0.1262744626864559 -0.0024296962166532065 -0.06334619863037749 -0.09818108041456687 -0.005668671496683439 0.09441060678038661 -0.12821815493400682 0.02377980573620115 -0.09126105044022824 0.08891095021252625 0.025227666254342328 0.033582667558656 0.14382534616761022 0.06355453666199216 0.023709895291059498 -0.04877233275030665 -0.042975592902585416 -0.05213978654334286 0.06283511230981027 -0.020847344611995305 -0.14389007970517387 -0.11614875087863753 0.006368687131478065 0.038050791722010216
primate.n.02 0.07497438151161764 -0.038540204712777144 0.03442023878324625 -0.05791096161284799 -0.0737999474795191 -0.010393156107589766 0.027812667347070084 0.01562067538899688 -0.09196590360288867 0.11576633030772197 -0.016995152693350266 0.0985567666597254 -0.01423079741534664 0.07922927316529661 -0.036981014832798614 0.12578005072155046 0.06769173558021019 -0.029750732102880362 0.06007449687561808 0.07079810528148582 0.06456480838554213 0.018564873123680554 -0.07540595234556441 0.022078034251959457 -0.07156211651620446 0.015736517163252754 0.039247547582831145 -0.07546159420446784 -0.15355030780748521 0.06604872491116423 0.01900738587232713 0.04619349980578007 0.06406584799765704 -0.08072788971737847 0.07182675878613753 -0.07847369704036364 -0.01611887201797336 -0.027173658022865522 0.19954503053163883 -0.04187225015217715 0.08810232661133993 0.04740129702283861 -0.01042553189298898 0.10029613453699189 0.0406101370168445 0.1092030179639116 0.00504705762834779 -0.0019329344343325145 0.02771276247334105 -0.051255999571358006
ferret_badger.n.01 0.038114449152306794 -0.12384508039735667 0.08227528579012801 0.06591065950750606 0.03144613415139644 0.03770486590375339 0.0670893215887445 -0.01282807857261566 0.01577629853716419 0.12841824098939242 -0.028573807982935167 0.05175075693704347 0.0021119101607925453 0.07955626684462806 0.06731703568885906 0.011078520275887238 0.04261895052779438 -0.11063201430387357 -0.05512596471091016 0.018438484640735543 -0.09632214238773316 -0.07230493927160742 -0.041789039859620125 -0.04790315248815024 -0.0355146598259309 -0.05446958791951875 0.050610195229536734 -0.08919966350766942 -0.09701097240813003 -0.019986621314577457 -0.03190342221225443 -0.08024659746628511 0.0012293099233009516 -0.102644816574017 0.06472903504319225 -0.0028614200606474193 -0.040923157110349516 0.04901977852943599 0.006915186963254456 0.016395404997659863 -0.06716313846105011 0.04800926570520135 -0.13186775445351975 0.11178798981277135 -0.10801505899757197 0.09277109256446421 -0.06620772094440949 -0.04526232345273233 0.06287114102593025 -0.03416084081040348
badger.n.02 0.0363706909543437 -0.11967335267693557 0.07932000517536567 0.06315420243387314 0.030187408016230842 0.03732391619107231 0.06465947527983486 -0.0129342234768711 0.015872544935958455 0.1227979242934622 -0.027876516864507726 0.04862175094828774 0.0026143489378895783 0.0757542981959682 0.06394820722368699 0.011395421174874845 0.04108647244206637 -0.10562050509959205 -0.05412423279448227 0.018515601614649144 -0.09138593601961255 -0.0694549398943326 -0.03997691687942038 -0.0458895780764214 -0.03357698075728673 -0.05194549548586819 0.04750680501995537 -0.0858123403974753 -0.09299144865422682 -0.019289043476342478 -0.030311462634763017 -0.07682654460702901 0.0018781720132505127 -0.09761285145316578 0.06204905048544723 -0.003783689256292649 -0.03887223215395331 0.04695508194878739 0.0070286217782697434 0.016175453481197893 -0.06447545981663899 0.04675963932503849 -0.126366658093053 0.10581969722593478 -0.10307572584342059 0.09028000464165274 -0.06310408629990658 -0.042952444061861966 0.05963610526014346 -0.032227576327609565
mountain_chinchilla.n.01 -0.018802009835527347 0.07241161791982346 -0.04161966939305859 0.005153732348917069 0.0770781786997974 0.04060638202874027 0.11465485179489435 0.04835915011497144 -0.10291258106836264 0.006475833168163462 0.007906864845833613 0.01607596897750589 0.02560100801411246 -0.06265335310010571 0.08038038409247464 0.043614576457530495 -0.034819725888307736 0.044299157462844255 -0.03347589789832698 -0.0630672893320196 -0.06786977549257785 0.0601654758724393 0.10475414333188005 0.18422243543580066 -0.0047079567882552945 0.11513115225391347 0.0345386017812535 0.041844829372843784 0.14749798406784848 0.08089865001968365 0.04086501877760141 -0.04293273098115683 0.007228819335499009 -0.158831966189664 0.005984355089277125 0.031192980241572632 0.10217845944830915 0.03979279108400525 -0.036324295923681256 0.08812470588407549 -0.023863712858741813 0.00857688406196949 0.03787099557202521 0.011996597804765596 0.00723437349901792 -0.0870372406744418 0.09772840804825629 0.05081978502518391 -0.053393138694303316 0.011636502290294367
leveret.n.01 0.0752585154313516 -0.065218119322983 -0.05102844566648391 -0.02259271367437294 0.04863345139812609 0.015914331990605934 -0.0219220695414411 -0.056604753811494095 -0.001007646261664487 -0.14907267712784267 -0.006596318997069364 0.02072888489729044 0.09921898023316113 -0.0825278682007085 0.04656301453445353 0.0026384550402652673 0.03124558171354276 -0.04214899134504597 -0.11878360072508669 0.02304595332258634 -0.05021184059935288 0.04834319735299805 0.0008384928856563006 -0.016121054004146245 -0.10383826408539895 0.05826434085141925 0.007866685804717775 0.018265115108065756 -0.0013076291994907148 -0.07348110241779209 -0.016302950927299036 -0.06515157001201702 -0.024221340637197882 -0.04357563334592934 -0.025043840352123658 0.005447502691378081 -0.09346235044670688 0.025544214969553513 -0.10986311426619692 0.0007232395628446367 -0.0018892211543522807 0.0844713960772601 -0.08476333834461638 -0.018917737312287682 -0.05343611160135451 -0.0878999425261276 -0.0032685538895980953 -0.12768512561645856 -0.023215365586594507 0.02143503653506812
leporid.n.01 0.0696925210431048 -0.05776520580877016 -0.04614287005509662 -0.020636060537438848 0.04372203297728209 0.015817393432434084 -0.01946360273645259 -0.05224044753289518 -0.0009046676291538218 -0.13534637524890245 -0.005647937415125788 0.01854478324704298 0.09036333162997386 -0.07393338409054238 0.041849373443287305 0.0015431172761112915 0.027795263263460514 -0.03835986692695206 -0.10555986012419798 0.022976958316791793 -0.04471537668021858 0.04439417327482568 0.001648319275260299 -0.012865776338198735 -0.09494670002431026 0.053107401672300714 0.006972842223074664 0.016981013315482615 -0.002245225240006038 -0.06726235603895911 -0.015991892268648663 -0.058649037607592054 -0.02370941730765553 -0.039903994486073936 -0.024698551323676186 0.005509957178469176 -0.08472614718604951 0.02386236778052584 -0.09749247952952146 0.001730413407531813 -0.0017762179975698107 0.07755255773155426 -0.07665965506136181 -0.01763697604436092 -0.04727981698727785 -0.08024388503859335 -0.003937252715247705 -0.11661386301932317 -0.021299018331752007 0.01970723058779966
bouvier_des_flandres.n.01 -0.05767952793789336 0.13940066558765704 -0.046694335125259286 0.03472548204007231 -0.0025082285476883477 -0.03683517997018207 0.06503327481649827 0.01849430191429261 -0.05165427176472942 0.05532021761476087 -0.013882233718843298 0.038635686793595254 0.018752812777905258 0.011495248606737786 0.09555042324764694 0.03144409281454728 -0.11609405489185996 0.051314028665516626 0.08662519253882006 -0.047290210709809835 0.01378088987927781 -0.08872078627216308 -0.04243028242593991 0.17511558892243673 0.045054316819754525 0.09391886699960394 0.06189180450207039 -0.05663472218958143 0.07275482108021271 0.07110991634088967 0.13266035739869542 -0.030378639324538326 -0.006055703676000098 -0.14534730485597985 0.07311359802291131 0.029241682734105674 0.09957675302976876 -0.0663523895359752 -0.029107900453151363 0.09260664008305575 0.03297009464342793 0.02628557017968087 0.07552514430432312 0.0060347026005265845 -0.01890634746274111 0.0510505059084376 0.033263182908415304 0.2985763226827444 -0.016628970680959646 -0.0838579024850745
wheel_horse.n.01 -0.02297997660127355 0.07819947660020991 -0.04782542012998261 0.0069555676770319255 0.09506164754977048 0.04795926349924963 0.13147633423610866 0.0547657886587225 -0.11431342038730859 0.005904100428036012 0.005787980157181135 0.021963514517596542 0.030119015061429534 -0.07785686838583981 0.0919138917855074 0.04724591152111149 -0.031714349502007064 0.056275373509750086 -0.041021244915586515 -0.07255891521542097 -0.0831010254883738 0.07016928145594536 0.12269766130512437 0.20969707004390942 -0.004369421835095251 0.13092344315362162 0.039408695230008936 0.05277562850708324 0.17119321231777385 0.0931540272940119 0.042884033623693765 -0.05197034895815042 0.007980459835777338 -0.18439681388125684 0.006118465928951462 0.033596177887357935 0.11010360740605388 0.050829898334805224 -0.042696309867541644 0.09341663690486716 -0.02383619806270828 0.01338389316642004 0.04412357447604306 0.019549831686375814 0.0039063055522718364 -0.1082018131537741 0.11874422107205805 0.050662665271409967 -0.06035582969231976 0.01731385919423559
pocket_rat.n.01 -0.10678135392111142 -0.05070794564161071 -0.053686212025253754 0.06579700853386365 0.010459909165732785 0.027885996190662034 -0.008330999544118974 -0.06074921136904497 -0.002737886655173807 0.0007522349761120069 -0.12157002183368469 0.06254764056331419 0.037835991596463184 0.0915180252198354 0.08787711503976244 -0.03875257499782087 0.06049290829875696 0.040023468858026476 -0.10922409481948361 0.049517647266131455 -0.04757127922484684 -0.14426911378946458 -0.05794282284470648 -0.1481339209111603 0.030212846676455574 -0.00029711869294106284 -0.0657492955427861 -0.07076561729139964 0.06448890472243163 0.00035386097939203563 0.005072596017111592 -0.06656896121688823 -0.024583987740651125 0.05655116059083562 0.004087690030013721 -0.13211714598031574 -0.08151653775910882 0.03428407855053215 0.09045514465011738 -0.0002568673619601667 0.016683799441033674 0.09573180825671554 0.06978235306289647 0.07951928183443978 -0.010032745488634542 0.0814551768965392 -0.014836248816409443 0.031346766067813114 0.12108570654998953 -0.08937959290476297
malinois.n.01 -0.038039619834001365 -0.1391481801548275 0.016988920561832734 0.070215781996893 -0.04105908167955736 0.04309687111292576 -0.07255968908768638 -0.03304652484284901 0.002750874581741143 -0.08517367826642942 0.06329737412466989 -0.03982060394872744 0.04955897729583887 -0.059975095861145224 -0.008973450272034571 0.07016475142833359 0.0036590369345180676 0.045117595590676914 -0.01109344551608735 -0.011474717879883049 -0.010300448224163018 -0.04182176391100334 -0.004679172985264671 -0.061016526978032046 -0.001721647086102452 0.027328170846997787 -0.020949052527213196 -0.01600031402401577 -0.052824782122201826 -0.025846376928924424 0.014360376842476437 0.0011126574760996148 -0.10280308424579494 -0.07208952181080017 -0.0678497886924949 0.058436267125273424 -0.10118223696916082 0.10230723604841492 0.008745786887548741 0.04044590040637459 -0.04005487739671872 0.0239361765628175 -0.005220999922308838 0.003023360479680752 -0.04910965960835975 0.06888280477450416 -0.08045746176093087 -0.055957227697572644 -0.041158965606223195 0.16858727639072285
working_dog.n.01 -0.035861029472359834 -0.1340734326276333 0.015445773112856616 0.06759953134005181 -0.04059577026980203 0.04052508303194836 -0.06954901817712884 -0.032304896377465656 0.0032187615728053306 -0.0807514829128466 0.05997988780126094 -0.03801884959098427 0.04656578125475639 -0.05714751408894713 -0.00817157911370931 0.0664326541847496 0.004451314925448291 0.04324199225767501 -0.00913412377277329 -0.010073756536828987 -0.010471032843895849 -0.04019472787001018 -0.0041744791834337665 -0.057982768234105954 -0.0016014241659261408 0.026127311681217465 -0.020474877461440215 -0.016885938345593786 -0.05227353784178811 -0.024054007280358662 0.013780778621710607 0.0008684286623323347 -0.09886518976208797 -0.06778843967408058 -0.06527427680993941 0.05625533854266695 -0.09699668637827549 0.09884421024944237 0.00886846264019958 0.036593422983843396 -0.03765283868224394 0.022675676951649446 -0.005120477267820006 0.0033712063674429605 -0.04635910932034632 0.06553172671069127 -0.07793856654343059 -0.05305615284669812 -0.03998184799373504 0.1608370630429452
